{"learner":{"attributes":{"scikit_learn":"{\"_estimator_type\": \"classifier\"}"},"feature_names":[],"feature_types":[],"gradient_booster":{"model":{"cats":{"enc":[],"feature_segments":[],"sorted_idx":[]},"gbtree_model_param":{"num_parallel_tree":"1","num_trees":"220"},"iteration_indptr":[0,1,2,3,4,5,6,7,8,9,10,11,12,13,14,15,16,17,18,19,20,21,22,23,24,25,26,27,28,29,30,31,32,33,34,35,36,37,38,39,40,41,42,43,44,45,46,47,48,49,50,51,52,53,54,55,56,57,58,59,60,61,62,63,64,65,66,67,68,69,70,71,72,73,74,75,76,77,78,79,80,81,82,83,84,85,86,87,88,89,90,91,92,93,94,95,96,97,98,99,100,101,102,103,104,105,106,107,108,109,110,111,112,113,114,115,116,117,118,119,120,121,122,123,124,125,126,127,128,129,130,131,132,133,134,135,136,137,138,139,140,141,142,143,144,145,146,147,148,149,150,151,152,153,154,155,156,157,158,159,160,161,162,163,164,165,166,167,168,169,170,171,172,173,174,175,176,177,178,179,180,181,182,183,184,185,186,187,188,189,190,191,192,193,194,195,196,197,198,199,200,201,202,203,204,205,206,207,208,209,210,211,212,213,214,215,216,217,218,219,220],"tree_info":[0,0,0,0,0,0,0,0,0,0,0,0,0,0,0,0,0,0,0,0,0,0,0,0,0,0,0,0,0,0,0,0,0,0,0,0,0,0,0,0,0,0,0,0,0,0,0,0,0,0,0,0,0,0,0,0,0,0,0,0,0,0,0,0,0,0,0,0,0,0,0,0,0,0,0,0,0,0,0,0,0,0,0,0,0,0,0,0,0,0,0,0,0,0,0,0,0,0,0,0,0,0,0,0,0,0,0,0,0,0,0,0,0,0,0,0,0,0,0,0,0,0,0,0,0,0,0,0,0,0,0,0,0,0,0,0,0,0,0,0,0,0,0,0,0,0,0,0,0,0,0,0,0,0,0,0,0,0,0,0,0,0,0,0,0,0,0,0,0,0,0,0,0,0,0,0,0,0,0,0,0,0,0,0,0,0,0,0,0,0,0,0,0,0,0,0,0,0,0,0,0,0,0,0,0,0,0,0,0,0,0,0,0,0,0,0,0,0,0,0],"trees":[{"base_weights":[-8.212984E-3,-7.972327E-1,5.50409E-1,-2.8789994E-1,-1.9169021E0,1.3617072E0,-4.1847504E-3,-9.0517443E-1,4.1583142E-1,-1.2020254E-1,-6.467176E-1,1.8133742E0,-4.7376636E-1,-1.2097608E0,4.8712245E-1,-7.832963E-2,1.613645E-2,-5.6855295E-2,4.660314E-2,2.8261332E-2,-1.0986979E-1,1.17908664E-1,6.965784E-2,1.8450968E-2,-1.0738899E-1,-1.04053795E-1,6.0020883E-2,7.402687E-2,-1.7672725E-2],"categories":[],"categories_nodes":[],"categories_segments":[],"categories_sizes":[],"default_left":[0,0,0,0,0,0,0,0,0,0,0,0,0,0,0,0,0,0,0,0,0,0,0,0,0,0,0,0,0],"id":0,"left_children":[1,3,5,7,9,11,13,15,17,-1,19,21,23,25,27,-1,-1,-1,-1,-1,-1,-1,-1,-1,-1,-1,-1,-1,-1],"loss_changes":[1.1355988E3,6.084973E2,6.787256E2,3.1975803E2,3.5361816E1,5.086233E2,5.318771E2,1.8459503E2,1.7011719E2,0E0,3.0980602E1,4.6408813E1,1.2573163E2,3.0310254E2,3.7271625E2,0E0,0E0,0E0,0E0,0E0,0E0,0E0,0E0,0E0,0E0,0E0,0E0,0E0,0E0],"parents":[2147483647,0,0,1,1,2,2,3,3,4,4,5,5,6,6,7,7,8,8,10,10,11,11,12,12,13,13,14,14],"right_children":[2,4,6,8,10,12,14,16,18,-1,20,22,24,26,28,-1,-1,-1,-1,-1,-1,-1,-1,-1,-1,-1,-1,-1,-1],"split_conditions":[5E0,6E0,5E0,2E0,1E0,1E0,2E0,1E0,5E-1,-1.2020254E-1,1E0,1E0,8E0,4E0,4E0,-7.832963E-2,1.613645E-2,-5.6855295E-2,4.660314E-2,2.8261332E-2,-1.0986979E-1,1.17908664E-1,6.965784E-2,1.8450968E-2,-1.0738899E-1,-1.04053795E-1,6.0020883E-2,7.402687E-2,-1.7672725E-2],"split_indices":[31,50,50,30,24,65,33,65,35,0,26,20,52,52,33,0,0,0,0,0,0,0,0,0,0,0,0,0,0],"split_type":[0,0,0,0,0,0,0,0,0,0,0,0,0,0,0,0,0,0,0,0,0,0,0,0,0,0,0,0,0],"sum_hessian":[2.5744387E3,1.0669746E3,1.5074641E3,7.342325E2,3.3274207E2,6.114854E2,8.9597864E2,3.909907E2,3.4324182E2,3.1099258E2,2.1749481E1,4.907383E2,1.2074712E2,2.5899384E2,6.369848E2,2.9149304E2,9.949763E1,7.14983E1,2.7174353E2,1.1499725E1,1.0249756E1,3.9649054E2,9.424775E1,7.6248184E1,4.449894E1,2.0949501E2,4.949882E1,3.2549225E2,3.1149258E2],"tree_param":{"num_deleted":"0","num_feature":"67","num_nodes":"29","size_leaf_vector":"1"}},{"base_weights":[2.7259109E-3,-7.677267E-1,5.3993475E-1,-2.7978107E-1,-1.8009194E0,1.2907643E0,3.1029902E-2,-8.475281E-1,3.751197E-1,-1.8310705E0,7.070229E-1,1.7062528E0,-4.2231736E-1,-1.1230528E0,5.0113803E-1,-7.352518E-2,1.5780536E-2,-5.8487695E-2,4.4712268E-2,-1.10542595E-1,3.9741248E-2,8.1517756E-2,-2.5374461E-2,1.1117054E-1,6.463017E-2,1.8724829E-2,-9.9843085E-2,-9.8305464E-2,5.4561943E-2,7.237723E-2,-1.3829051E-2],"categories":[],"categories_nodes":[],"categories_segments":[],"categories_sizes":[],"default_left":[0,0,0,0,0,0,0,0,0,0,0,0,0,0,0,0,0,0,0,0,0,0,0,0,0,0,0,0,0,0,0],"id":1,"left_children":[1,3,5,7,9,11,13,15,17,19,21,23,25,27,29,-1,-1,-1,-1,-1,-1,-1,-1,-1,-1,-1,-1,-1,-1,-1,-1],"loss_changes":[1.065325E3,5.325782E2,5.794164E2,2.6780313E2,2.6929565E1,4.367541E2,4.9150668E2,1.621636E2,1.6796277E2,1.0671387E1,4.0708594E0,4.348828E1,1.1029735E2,2.7615457E2,3.323496E2,0E0,0E0,0E0,0E0,0E0,0E0,0E0,0E0,0E0,0E0,0E0,0E0,0E0,0E0,0E0,0E0],"parents":[2147483647,0,0,1,1,2,2,3,3,4,4,5,5,6,6,7,7,8,8,9,9,10,10,11,11,12,12,13,13,14,14],"right_children":[2,4,6,8,10,12,14,16,18,20,22,24,26,28,30,-1,-1,-1,-1,-1,-1,-1,-1,-1,-1,-1,-1,-1,-1,-1,-1],"split_conditions":[5E0,6E0,5E0,2E0,1E0,1E0,2E0,1E0,5E-1,1E0,4E0,1E0,8E0,4E0,4E0,-7.352518E-2,1.5780536E-2,-5.8487695E-2,4.4712268E-2,-1.10542595E-1,3.9741248E-2,8.1517756E-2,-2.5374461E-2,1.1117054E-1,6.463017E-2,1.8724829E-2,-9.9843085E-2,-9.8305464E-2,5.4561943E-2,7.237723E-2,-1.3829051E-2],"split_indices":[31,50,50,30,65,65,33,65,35,39,52,20,52,52,33,0,0,0,0,0,0,0,0,0,0,0,0,0,0,0,0],"split_type":[0,0,0,0,0,0,0,0,0,0,0,0,0,0,0,0,0,0,0,0,0,0,0,0,0,0,0,0,0,0,0],"sum_hessian":[2.5719062E3,1.0564052E3,1.5155012E3,7.1839825E2,3.3800696E2,6.1160834E2,9.038928E2,3.846463E2,3.3375195E2,3.342583E2,3.7486444E0,4.9222803E2,1.1938031E2,2.6122205E2,6.4267084E2,2.869127E2,9.77336E1,7.146039E1,2.6229156E2,3.3300943E2,1.2488779E0,2.2491865E0,1.4994577E0,3.976273E2,9.4600716E1,7.548497E1,4.3895344E1,2.0853621E2,5.2685818E1,3.2692575E2,3.1574506E2],"tree_param":{"num_deleted":"0","num_feature":"67","num_nodes":"31","size_leaf_vector":"1"}},{"base_weights":[-3.524271E-3,-7.084344E-1,5.086815E-1,-1.1788323E0,-3.2929108E-2,1.0871037E0,1.5798532E-3,-1.435001E0,1.9627325E-1,1.00176E0,-5.452221E-1,1.472027E0,1.8892692E-1,7.496855E-1,-3.548975E-1,-4.5776077E-2,-1.0478003E-1,5.805018E-2,-4.827817E-2,1.0212906E-1,-7.6540634E-3,2.5025276E-2,-5.561823E-2,9.446028E-2,-1.08666494E-1,-1.04489796E-1,4.7949977E-2,-6.295752E-2,7.017585E-2,-4.6481483E-2,3.497724E-2],"categories":[],"categories_nodes":[],"categories_segments":[],"categories_sizes":[],"default_left":[0,0,0,0,0,0,0,0,0,0,0,0,0,0,0,0,0,0,0,0,0,0,0,0,0,0,0,0,0,0,0],"id":2,"left_children":[1,3,5,7,9,11,13,15,17,19,21,23,25,27,29,-1,-1,-1,-1,-1,-1,-1,-1,-1,-1,-1,-1,-1,-1,-1,-1],"loss_changes":[9.275439E2,3.43489E2,4.3641278E2,2.2476874E2,2.3633282E2,2.4001984E2,2.1195978E2,1.11095215E2,7.870904E1,1.1701166E2,1.099214E2,1.6622974E2,2.4837271E2,1.9499211E2,2.1238324E2,0E0,0E0,0E0,0E0,0E0,0E0,0E0,0E0,0E0,0E0,0E0,0E0,0E0,0E0,0E0,0E0],"parents":[2147483647,0,0,1,1,2,2,3,3,4,4,5,5,6,6,7,7,8,8,9,9,10,10,11,11,12,12,13,13,14,14],"right_children":[2,4,6,8,10,12,14,16,18,20,22,24,26,28,30,-1,-1,-1,-1,-1,-1,-1,-1,-1,-1,-1,-1,-1,-1,-1,-1],"split_conditions":[2E0,5E0,2E0,1E0,5E0,1E0,2E0,5E0,4E0,1E0,2E0,1E0,2E0,1E0,4E0,-4.5776077E-2,-1.0478003E-1,5.805018E-2,-4.827817E-2,1.0212906E-1,-7.6540634E-3,2.5025276E-2,-5.561823E-2,9.446028E-2,-1.08666494E-1,-1.04489796E-1,4.7949977E-2,-6.295752E-2,7.017585E-2,-4.6481483E-2,3.497724E-2],"split_indices":[30,31,49,65,50,65,52,50,54,20,52,25,33,45,35,0,0,0,0,0,0,0,0,0,0,0,0,0,0,0,0],"split_type":[0,0,0,0,0,0,0,0,0,0,0,0,0,0,0,0,0,0,0,0,0,0,0,0,0,0,0,0,0,0,0],"sum_hessian":[2.5669553E3,1.0801051E3,1.4868503E3,6.362784E2,4.4382678E2,6.940467E2,7.928036E2,5.3632306E2,9.99553E1,1.4665968E2,2.971671E2,4.8538907E2,2.086576E2,2.5550214E2,5.373015E2,1.708861E2,3.6543695E2,5.6473896E1,4.3481403E1,9.020732E1,5.645236E1,8.437708E1,2.1279002E2,4.7122498E2,1.4164115E1,4.9672005E1,1.5898558E2,4.8068653E1,2.0743347E2,3.7128412E2,1.6601738E2],"tree_param":{"num_deleted":"0","num_feature":"67","num_nodes":"31","size_leaf_vector":"1"}},{"base_weights":[2.4125911E-3,-6.7722285E-1,4.8055074E-1,-2.3555927E-1,-1.6535639E0,1.1671896E0,1.9697398E-2,-7.370584E-1,3.306468E-1,-1.0418143E-1,-5.2091026E-1,1.5680226E0,-4.65901E-1,1.0653256E0,-4.1610238E-1,-6.445836E-2,1.4030416E-2,-5.2517507E-2,3.9762046E-2,9.937317E-2,-6.889366E-2,9.7250074E-2,-8.2245626E-4,1.29931085E-2,-9.341768E-2,-3.4693863E-2,1.02003366E-1,-6.1002165E-2,1.4070967E-2],"categories":[],"categories_nodes":[],"categories_segments":[],"categories_sizes":[],"default_left":[0,0,0,0,0,0,0,0,0,0,0,0,0,0,0,0,0,0,0,0,0,0,0,0,0,0,0,0,0],"id":3,"left_children":[1,3,5,7,9,11,13,15,17,-1,19,21,23,25,27,-1,-1,-1,-1,-1,-1,-1,-1,-1,-1,-1,-1,-1,-1],"loss_changes":[8.3001166E2,4.5447104E2,4.7443457E2,2.0680573E2,2.9889954E1,3.94898E2,4.0974283E2,1.2666672E2,1.3767924E2,0E0,3.4402782E1,4.0428833E1,8.92715E1,2.7692572E2,2.4825357E2,0E0,0E0,0E0,0E0,0E0,0E0,0E0,0E0,0E0,0E0,0E0,0E0,0E0,0E0],"parents":[2147483647,0,0,1,1,2,2,3,3,4,4,5,5,6,6,7,7,8,8,10,10,11,11,12,12,13,13,14,14],"right_children":[2,4,6,8,10,12,14,16,18,-1,20,22,24,26,28,-1,-1,-1,-1,-1,-1,-1,-1,-1,-1,-1,-1,-1,-1],"split_conditions":[5E0,6E0,5E0,2E0,1E0,1E0,2E0,1E0,5E-1,-1.0418143E-1,1E0,1.2281838E1,4E0,1E0,4E0,-6.445836E-2,1.4030416E-2,-5.2517507E-2,3.9762046E-2,9.937317E-2,-6.889366E-2,9.7250074E-2,-8.2245626E-4,1.29931085E-2,-9.341768E-2,-3.4693863E-2,1.02003366E-1,-6.1002165E-2,1.4070967E-2],"split_indices":[31,50,50,30,24,65,52,65,35,0,43,2,54,65,52,0,0,0,0,0,0,0,0,0,0,0,0,0,0],"split_type":[0,0,0,0,0,0,0,0,0,0,0,0,0,0,0,0,0,0,0,0,0,0,0,0,0,0,0,0,0],"sum_hessian":[2.5521978E3,1.0538364E3,1.4983612E3,7.2645435E2,3.2738208E2,6.011531E2,8.972081E2,3.8508008E2,3.4137424E2,3.045849E2,2.2797197E1,4.8271356E2,1.1843952E2,2.635117E2,6.336965E2,2.8572516E2,9.935493E1,7.3349785E1,2.6802448E2,4.732548E0,1.806465E1,4.670932E2,1.5620371E1,7.335676E1,4.5082764E1,7.3439125E1,1.9007257E2,3.292218E2,3.0447467E2],"tree_param":{"num_deleted":"0","num_feature":"67","num_nodes":"29","size_leaf_vector":"1"}},{"base_weights":[-4.0921248E-3,6.404261E-1,-4.808953E-1,1.111313E0,-3.182603E-4,-1.0124657E0,-2.083533E-2,1.3892937E0,-4.8540315E-1,-8.840737E-1,4.5253548E-1,-1.5274365E0,1.4036235E-1,8.760358E-1,-4.3826354E-1,8.655396E-2,-9.3014695E-2,-6.710411E-2,4.0243972E-2,-8.913749E-2,-1.2278659E-3,1.6275866E-2,8.2557E-2,-9.3470156E-2,-2.3031514E-2,4.2223223E-2,-5.9264105E-2,-1.1393787E-2,7.0386514E-2,-3.3952665E-2,1.14403166E-1],"categories":[],"categories_nodes":[],"categories_segments":[],"categories_sizes":[],"default_left":[0,0,0,0,0,0,0,0,0,0,0,0,0,0,0,0,0,0,0,0,0,0,0,0,0,0,0,0,0,0,0],"id":4,"left_children":[1,3,5,7,9,11,13,15,17,19,21,23,25,27,29,-1,-1,-1,-1,-1,-1,-1,-1,-1,-1,-1,-1,-1,-1,-1,-1],"loss_changes":[7.745831E2,3.233744E2,3.5428003E2,2.7487616E2,1.8249797E2,3.992351E2,2.9151642E2,8.467285E1,6.833086E1,8.023178E1,5.0095364E1,1.555603E1,1.3316907E2,7.853772E1,1.6007951E2,0E0,0E0,0E0,0E0,0E0,0E0,0E0,0E0,0E0,0E0,0E0,0E0,0E0,0E0,0E0,0E0],"parents":[2147483647,0,0,1,1,2,2,3,3,4,4,5,5,6,6,7,7,8,8,9,9,10,10,11,11,12,12,13,13,14,14],"right_children":[2,4,6,8,10,12,14,16,18,20,22,24,26,28,30,-1,-1,-1,-1,-1,-1,-1,-1,-1,-1,-1,-1,-1,-1,-1,-1],"split_conditions":[2E0,5E0,5E0,1E0,5E0,1E0,2E0,1E0,4E0,1E0,1E0,1E0,4E0,1E0,1E0,8.655396E-2,-9.3014695E-2,-6.710411E-2,4.0243972E-2,-8.913749E-2,-1.2278659E-3,1.6275866E-2,8.2557E-2,-9.3470156E-2,-2.3031514E-2,4.2223223E-2,-5.9264105E-2,-1.1393787E-2,7.0386514E-2,-3.3952665E-2,1.14403166E-1],"split_indices":[49,50,31,65,31,65,52,56,35,20,28,28,54,5,44,0,0,0,0,0,0,0,0,0,0,0,0,0,0,0,0],"split_type":[0,0,0,0,0,0,0,0,0,0,0,0,0,0,0,0,0,0,0,0,0,0,0,0,0,0,0,0,0,0,0],"sum_hessian":[2.5185383E3,1.0707754E3,1.4477628E3,6.167718E2,4.5400366E2,6.711223E2,7.766405E2,5.254273E2,9.1344475E1,1.5349739E2,3.0050626E2,4.6367346E2,2.0744885E2,2.4631606E2,5.3032446E2,5.165748E2,8.852485E0,5.904774E1,3.229673E1,9.005141E1,6.3445988E1,2.5227678E2,4.8229473E1,4.5131406E2,1.2359426E1,1.386066E2,6.8842255E1,5.376426E1,1.925518E2,5.036732E2,2.6651264E1],"tree_param":{"num_deleted":"0","num_feature":"67","num_nodes":"31","size_leaf_vector":"1"}},{"base_weights":[4.7594444E-3,-6.116518E-1,4.5028287E-1,-1.015327E0,-5.1598743E-2,9.590954E-1,1.2034892E-2,-1.2593004E0,2.1403104E-1,8.814058E-1,-5.16955E-1,1.3306491E0,1.19102344E-1,1.954727E-1,-9.7059155E-1,-7.932381E-2,1.13331795E-1,5.5781282E-2,-4.1669406E-2,9.110987E-2,-7.7425074E-3,2.2609467E-2,-5.1862396E-2,8.5322134E-2,-9.989749E-2,6.3664965E-2,-2.1658648E-2,5.0651688E-2,-7.3866136E-3,-8.117553E-2,5.2556354E-3],"categories":[],"categories_nodes":[],"categories_segments":[],"categories_sizes":[],"default_left":[0,0,0,0,0,0,0,0,0,0,0,0,0,0,0,0,0,0,0,0,0,0,0,0,0,0,0,0,0,0,0],"id":5,"left_children":[1,3,5,7,9,11,13,15,17,19,21,23,25,27,29,-1,-1,-1,-1,-1,-1,-1,-1,-1,-1,-1,-1,-1,-1,-1,-1],"loss_changes":[6.912076E2,2.3867532E2,3.2576224E2,1.843039E2,1.9295158E2,2.1083527E2,1.418525E2,1.0368823E2,6.726468E1,9.5414474E1,9.237577E1,1.3065485E2,9.463787E1,1.371514E2,5.0206985E1,0E0,0E0,0E0,0E0,0E0,0E0,0E0,0E0,0E0,0E0,0E0,0E0,0E0,0E0,0E0,0E0],"parents":[2147483647,0,0,1,1,2,2,3,3,4,4,5,5,6,6,7,7,8,8,9,9,10,10,11,11,12,12,13,13,14,14],"right_children":[2,4,6,8,10,12,14,16,18,20,22,24,26,28,30,-1,-1,-1,-1,-1,-1,-1,-1,-1,-1,-1,-1,-1,-1,-1,-1],"split_conditions":[2E0,5E0,2E0,1E0,5E0,1E0,1E0,1E0,4E0,1E0,2E0,1E0,2E0,2E0,4E0,-7.932381E-2,1.13331795E-1,5.5781282E-2,-4.1669406E-2,9.110987E-2,-7.7425074E-3,2.2609467E-2,-5.1862396E-2,8.5322134E-2,-9.989749E-2,6.3664965E-2,-2.1658648E-2,5.0651688E-2,-7.3866136E-3,-8.117553E-2,5.2556354E-3],"split_indices":[30,31,49,65,50,65,47,37,54,20,52,25,52,52,35,0,0,0,0,0,0,0,0,0,0,0,0,0,0,0,0],"split_type":[0,0,0,0,0,0,0,0,0,0,0,0,0,0,0,0,0,0,0,0,0,0,0,0,0,0,0,0,0,0,0],"sum_hessian":[2.5149055E3,1.0549456E3,1.4599601E3,6.125899E2,4.4235562E2,6.750399E2,7.849201E2,5.1112897E2,1.0146093E2,1.4691267E2,2.9544293E2,4.6761566E2,2.0742427E2,6.621165E2,1.2280359E2,5.017068E2,9.422198E0,5.6741455E1,4.471947E1,8.979419E1,5.711848E1,8.2672455E1,2.127705E2,4.5428226E2,1.333341E1,6.961674E1,1.3780754E2,2.1752539E2,4.4459113E2,9.0005196E1,3.2798393E1],"tree_param":{"num_deleted":"0","num_feature":"67","num_nodes":"31","size_leaf_vector":"1"}},{"base_weights":[-8.28754E-3,5.8436275E-1,-4.4030362E-1,1.0269153E0,1.0709238E-3,-9.429641E-1,-9.249839E-3,1.2848301E0,-4.7258708E-1,-8.224908E-1,4.1616547E-1,-1.3093764E0,-8.009906E-2,1.6445461E-1,-9.534782E-1,7.999901E-2,-8.646078E-2,-6.251219E-2,3.3800613E-2,-1.1386572E-2,-9.5640555E-2,5.8447532E-2,9.22283E-3,-8.506222E-2,1.049988E-1,9.439069E-2,-3.461747E-2,4.639834E-2,-8.685583E-3,6.8997785E-2,-6.702768E-2],"categories":[],"categories_nodes":[],"categories_segments":[],"categories_sizes":[],"default_left":[0,0,0,0,0,0,0,0,0,0,0,0,0,0,0,0,0,0,0,0,0,0,0,0,0,0,0,0,0,0,0],"id":6,"left_children":[1,3,5,7,9,11,13,15,17,19,21,23,25,27,29,-1,-1,-1,-1,-1,-1,-1,-1,-1,-1,-1,-1,-1,-1,-1,-1],"loss_changes":[6.37786E2,2.7110992E2,3.1216443E2,2.3156024E2,1.555744E2,2.101825E2,1.2753735E2,6.9300476E1,5.2702568E1,7.414438E1,4.41591E1,1.571847E2,1.646369E2,1.23766914E2,4.287432E1,0E0,0E0,0E0,0E0,0E0,0E0,0E0,0E0,0E0,0E0,0E0,0E0,0E0,0E0,0E0,0E0],"parents":[2147483647,0,0,1,1,2,2,3,3,4,4,5,5,6,6,7,7,8,8,9,9,10,10,11,11,12,12,13,13,14,14],"right_children":[2,4,6,8,10,12,14,16,18,20,22,24,26,28,30,-1,-1,-1,-1,-1,-1,-1,-1,-1,-1,-1,-1,-1,-1,-1,-1],"split_conditions":[2E0,5E0,2E0,1E0,5E0,1E0,1E0,1E0,4E0,3E0,2E0,1E0,2E0,2E0,1E0,7.999901E-2,-8.646078E-2,-6.251219E-2,3.3800613E-2,-1.1386572E-2,-9.5640555E-2,5.8447532E-2,9.22283E-3,-8.506222E-2,1.049988E-1,9.439069E-2,-3.461747E-2,4.639834E-2,-8.685583E-3,6.8997785E-2,-6.702768E-2],"split_indices":[49,50,30,65,31,65,47,56,35,31,52,44,52,52,26,0,0,0,0,0,0,0,0,0,0,0,0,0,0,0,0],"split_type":[0,0,0,0,0,0,0,0,0,0,0,0,0,0,0,0,0,0,0,0,0,0,0,0,0,0,0,0,0,0,0],"sum_hessian":[2.4890115E3,1.0492592E3,1.4397522E3,5.96173E2,4.530862E2,6.641205E2,7.756318E2,5.0880203E2,8.737092E1,1.515079E2,3.015783E2,4.6580197E2,1.9831848E2,6.558116E2,1.1982018E2,5.0041168E2,8.39036E0,5.638146E1,3.098946E1,8.392655E1,6.758135E1,9.5608154E1,2.0597015E2,4.503909E2,1.5411092E1,4.5327347E1,1.5299113E2,2.2037889E2,4.3543268E2,8.214154E0,1.11606026E2],"tree_param":{"num_deleted":"0","num_feature":"67","num_nodes":"31","size_leaf_vector":"1"}},{"base_weights":[-9.307406E-3,-5.899762E-1,3.9264652E-1,-2.1318759E-1,-1.4543668E0,1.0230447E0,-7.644439E-3,-5.057005E-1,6.152045E-1,-1.4827172E0,6.777346E-1,1.3747232E0,-3.2847667E-1,-9.412223E-1,3.7143472E-1,-4.687666E-2,5.0982863E-2,8.374922E-3,8.451291E-2,-8.9586794E-2,3.5346225E-2,7.765198E-2,-3.47621E-2,8.551827E-2,-1.6175206E-3,-6.377669E-2,4.829927E-2,3.460708E-2,-9.155606E-2,5.751242E-2,-1.3225159E-2],"categories":[],"categories_nodes":[],"categories_segments":[],"categories_sizes":[],"default_left":[0,0,0,0,0,0,0,0,0,0,0,0,0,0,0,0,0,0,0,0,0,0,0,0,0,0,0,0,0,0,0],"id":7,"left_children":[1,3,5,7,9,11,13,15,17,19,21,23,25,27,29,-1,-1,-1,-1,-1,-1,-1,-1,-1,-1,-1,-1,-1,-1,-1,-1],"loss_changes":[5.76495E2,3.2875775E2,3.6832953E2,1.7109888E2,1.9534302E1,2.6988977E2,3.1664062E2,1.9543102E2,6.9376236E1,7.402405E0,4.3990564E0,3.1944458E1,9.897077E1,2.3021857E2,2.2133035E2,0E0,0E0,0E0,0E0,0E0,0E0,0E0,0E0,0E0,0E0,0E0,0E0,0E0,0E0,0E0,0E0],"parents":[2147483647,0,0,1,1,2,2,3,3,4,4,5,5,6,6,7,7,8,8,9,9,10,10,11,11,12,12,13,13,14,14],"right_children":[2,4,6,8,10,12,14,16,18,20,22,24,26,28,30,-1,-1,-1,-1,-1,-1,-1,-1,-1,-1,-1,-1,-1,-1,-1,-1],"split_conditions":[5E0,6E0,5E0,4E0,1E0,1E0,2E0,1E0,1E0,1E0,4E0,1.2281838E1,4E0,1E0,4E0,-4.687666E-2,5.0982863E-2,8.374922E-3,8.451291E-2,-8.9586794E-2,3.5346225E-2,7.765198E-2,-3.47621E-2,8.551827E-2,-1.6175206E-3,-6.377669E-2,4.829927E-2,3.460708E-2,-9.155606E-2,5.751242E-2,-1.3225159E-2],"split_indices":[31,50,50,35,65,65,33,37,41,28,52,2,35,65,33,0,0,0,0,0,0,0,0,0,0,0,0,0,0,0,0],"split_type":[0,0,0,0,0,0,0,0,0,0,0,0,0,0,0,0,0,0,0,0,0,0,0,0,0,0,0,0,0,0,0],"sum_hessian":[2.4679724E3,1.0093632E3,1.4586091E3,7.038159E2,3.0554727E2,5.6587897E2,8.9273016E2,5.20435E2,1.8338089E2,3.0183835E2,3.7089365E0,4.4902206E2,1.168569E2,2.5738123E2,6.3534894E2,4.328528E2,8.75822E1,1.1538293E2,6.799797E1,3.0060925E2,1.2290946E0,2.468775E0,1.2401615E0,4.3336667E2,1.5655412E1,7.094671E1,4.5910194E1,7.157487E1,1.8580635E2,3.186429E2,3.1670602E2],"tree_param":{"num_deleted":"0","num_feature":"67","num_nodes":"31","size_leaf_vector":"1"}},{"base_weights":[-5.447961E-3,5.4086983E-1,-4.019088E-1,9.520998E-1,7.749234E-3,-8.729895E-1,-1.4557152E-3,1.206847E0,-4.5106024E-1,-7.1781117E-1,3.7258253E-1,-1.2119143E0,-9.685981E-2,9.20665E-2,-1.0919917E-1,7.512714E-2,-8.150835E-2,-5.859219E-2,3.531685E-2,1.06585346E-1,-5.5235766E-2,1.33233685E-2,7.092603E-2,-7.8802034E-2,9.899715E-2,1.8700685E-2,-5.6222156E-2,-1.4882348E-3,8.2253315E-2],"categories":[],"categories_nodes":[],"categories_segments":[],"categories_sizes":[],"default_left":[0,0,0,0,0,0,0,0,0,0,0,0,0,0,0,0,0,0,0,0,0,0,0,0,0,0,0,0,0],"id":8,"left_children":[1,3,5,7,9,11,13,15,17,19,21,23,25,27,-1,-1,-1,-1,-1,-1,-1,-1,-1,-1,-1,-1,-1,-1,-1],"loss_changes":[5.2574347E2,2.2377756E2,2.6534216E2,2.065235E2,1.1819741E2,1.6988907E2,1.2964069E2,5.8372925E1,4.9345848E1,7.720276E1,3.5940857E1,1.3275293E2,6.809271E1,1.0838935E2,0E0,0E0,0E0,0E0,0E0,0E0,0E0,0E0,0E0,0E0,0E0,0E0,0E0,0E0,0E0],"parents":[2147483647,0,0,1,1,2,2,3,3,4,4,5,5,6,6,7,7,8,8,9,9,10,10,11,11,12,12,13,13],"right_children":[2,4,6,8,10,12,14,16,18,20,22,24,26,28,-1,-1,-1,-1,-1,-1,-1,-1,-1,-1,-1,-1,-1,-1,-1],"split_conditions":[2E0,5E0,2E0,1E0,5E0,1E0,1E0,1E0,4E0,1E0,1E0,1E0,4E0,2E0,-1.0919917E-1,7.512714E-2,-8.150835E-2,-5.859219E-2,3.531685E-2,1.06585346E-1,-5.5235766E-2,1.33233685E-2,7.092603E-2,-7.8802034E-2,9.899715E-2,1.8700685E-2,-5.6222156E-2,-1.4882348E-3,8.2253315E-2],"split_indices":[49,50,30,65,31,65,25,56,35,5,28,44,54,38,0,0,0,0,0,0,0,0,0,0,0,0,0,0,0],"split_type":[0,0,0,0,0,0,0,0,0,0,0,0,0,0,0,0,0,0,0,0,0,0,0,0,0,0,0,0,0],"sum_hessian":[2.4253232E3,1.019753E3,1.4055703E3,5.752443E2,4.4450864E2,6.4529047E2,7.602799E2,4.869731E2,8.827124E1,1.4840381E2,2.9610483E2,4.4876132E2,1.9652916E2,7.2399603E2,3.6283833E1,4.790312E2,7.941922E0,5.867581E1,2.9595428E1,1.0574795E1,1.3782901E2,2.5075276E2,4.535208E1,4.3391995E2,1.4841351E1,1.3265456E2,6.3874596E1,6.6426965E2,5.9726406E1],"tree_param":{"num_deleted":"0","num_feature":"67","num_nodes":"29","size_leaf_vector":"1"}},{"base_weights":[2.3570608E-3,-5.3085583E-1,3.827697E-1,7.126094E-3,-8.422858E-1,8.202112E-1,1.8477114E-2,5.424245E-1,-5.4733044E-1,-1.1721543E0,-9.977875E-2,1.169066E0,6.8228565E-2,-6.1031187E-1,2.8831652E-1,1.2021531E-2,8.5945554E-2,-5.6690056E-2,9.555287E-3,-7.643072E-2,9.5640875E-2,8.856037E-2,-3.2647114E-2,7.527582E-2,-9.5170744E-2,-9.3394935E-2,3.575801E-2,5.7032876E-2,-5.6774534E-2,3.9026197E-2,-3.4104913E-2],"categories":[],"categories_nodes":[],"categories_segments":[],"categories_sizes":[],"default_left":[0,0,0,0,0,0,0,0,0,0,0,0,0,0,0,0,0,0,0,0,0,0,0,0,0,0,0,0,0,0,0],"id":9,"left_children":[1,3,5,7,9,11,13,15,17,19,21,23,25,27,29,-1,-1,-1,-1,-1,-1,-1,-1,-1,-1,-1,-1,-1,-1,-1,-1],"loss_changes":[4.881424E2,1.6788898E2,2.2380159E2,1.09630745E2,1.553274E2,1.6732928E2,1.3037314E2,5.692569E1,5.111373E1,1.2561304E2,1.3825938E2,1.0470508E2,1.7524643E2,1.21885124E2,1.6715686E2,0E0,0E0,0E0,0E0,0E0,0E0,0E0,0E0,0E0,0E0,0E0,0E0,0E0,0E0,0E0,0E0],"parents":[2147483647,0,0,1,1,2,2,3,3,4,4,5,5,6,6,7,7,8,8,9,9,10,10,11,11,12,12,13,13,14,14],"right_children":[2,4,6,8,10,12,14,16,18,20,22,24,26,28,30,-1,-1,-1,-1,-1,-1,-1,-1,-1,-1,-1,-1,-1,-1,-1,-1],"split_conditions":[2E0,2E0,2E0,5E0,1E0,1E0,2E0,3E0,1E0,1E0,2E0,1E0,2E0,1E0,4E0,1.2021531E-2,8.5945554E-2,-5.6690056E-2,9.555287E-3,-7.643072E-2,9.5640875E-2,8.856037E-2,-3.2647114E-2,7.527582E-2,-9.5170744E-2,-9.3394935E-2,3.575801E-2,5.7032876E-2,-5.6774534E-2,3.9026197E-2,-3.4104913E-2],"split_indices":[30,49,49,50,65,65,33,50,65,44,52,25,33,26,54,0,0,0,0,0,0,0,0,0,0,0,0,0,0,0,0],"split_type":[0,0,0,0,0,0,0,0,0,0,0,0,0,0,0,0,0,0,0,0,0,0,0,0,0,0,0,0,0,0,0],"sum_hessian":[2.4045264E3,1.00102484E3,1.4035016E3,3.6737592E2,6.336489E2,6.371556E2,7.66346E2,1.8692827E2,1.8044763E2,4.3833447E2,1.9531448E2,4.3486246E2,2.0229312E2,2.2973889E2,5.366072E2,1.3591531E2,5.101295E1,1.1526551E2,6.518213E1,4.2331198E2,1.5022492E1,4.245002E1,1.5286446E2,4.2229773E2,1.2564749E1,4.911804E1,1.5317508E2,4.0363796E1,1.8937509E2,3.7735077E2,1.592564E2],"tree_param":{"num_deleted":"0","num_feature":"67","num_nodes":"31","size_leaf_vector":"1"}},{"base_weights":[-5.148861E-3,-5.31931E-1,3.618709E-1,-1.8599318E-1,-1.3650413E0,4.8767003E-1,-1.3551813E0,-4.810258E-1,6.336818E-1,-8.662106E-2,-3.8434494E-1,-2.704458E-1,7.182299E-1,-1.0092656E-1,3.807143E-1,-4.3767136E-2,4.6402413E-2,5.5705033E-2,-3.245227E-2,9.335333E-2,-5.849535E-2,5.93594E-2,-8.616118E-2,4.6790123E-2,-1.1218889E-1,8.881256E-2,-7.2843306E-2],"categories":[],"categories_nodes":[],"categories_segments":[],"categories_sizes":[],"default_left":[0,0,0,0,0,0,0,0,0,0,0,0,0,0,0,0,0,0,0,0,0,0,0,0,0,0,0],"id":10,"left_children":[1,3,5,7,9,11,13,15,17,-1,19,21,23,-1,25,-1,-1,-1,-1,-1,-1,-1,-1,-1,-1,-1,-1],"loss_changes":[4.5823285E2,2.80233E2,3.0239127E2,1.6688574E2,2.145581E1,2.2781708E2,5.490602E1,1.5858527E2,6.3765823E1,0E0,2.735547E1,4.4840768E2,1.6071136E2,0E0,2.979924E1,0E0,0E0,0E0,0E0,0E0,0E0,0E0,0E0,0E0,0E0,0E0,0E0],"parents":[2147483647,0,0,1,1,2,2,3,3,4,4,5,5,6,6,7,7,8,8,10,10,11,11,12,12,14,14],"right_children":[2,4,6,8,10,12,14,16,18,-1,20,22,24,-1,26,-1,-1,-1,-1,-1,-1,-1,-1,-1,-1,-1,-1],"split_conditions":[5E0,6E0,1E0,4E0,1E0,2E0,1.6E1,1E0,8E0,-8.662106E-2,1E0,1E0,1E0,-1.0092656E-1,4.1743875E0,-4.3767136E-2,4.6402413E-2,5.5705033E-2,-3.245227E-2,9.335333E-2,-5.849535E-2,5.93594E-2,-8.616118E-2,4.6790123E-2,-1.1218889E-1,8.881256E-2,-7.2843306E-2],"split_indices":[31,50,47,35,24,33,33,37,54,0,43,65,25,0,0,0,0,0,0,0,0,0,0,0,0,0,0],"split_type":[0,0,0,0,0,0,0,0,0,0,0,0,0,0,0,0,0,0,0,0,0,0,0,0,0,0,0],"sum_hessian":[2.3680989E3,9.7222235E2,1.3958765E3,6.8783246E2,2.8438992E2,1.3012565E3,9.462001E1,5.0608582E2,1.8174663E2,2.6284036E2,2.1549553E1,3.034136E2,9.9784283E2,7.965016E1,1.4969848E1,4.22776E2,8.330983E1,1.4545625E2,3.629039E1,4.647273E0,1.690228E1,1.458875E2,1.5752611E2,9.75325E2,2.2517834E1,8.903363E0,6.0664845E0],"tree_param":{"num_deleted":"0","num_feature":"67","num_nodes":"27","size_leaf_vector":"1"}},{"base_weights":[-3.8598068E-3,-4.9982136E-1,3.4142306E-1,-1.6925314E-1,-1.3220991E0,4.682113E-1,-1.2726102E0,2.796172E-1,-4.8243797E-1,-8.429644E-2,-3.2011777E-1,9.3845206E-1,1.480276E-1,-9.1390215E-2,-9.6213794E-1,5.704586E-3,9.5582545E-2,-6.6117E-2,8.956985E-3,4.0254258E-2,-8.667553E-2,7.678236E-2,-1.8996404E-2,4.7537155E-2,-9.332006E-3,-7.6449774E-2,-2.6317649E-2],"categories":[],"categories_nodes":[],"categories_segments":[],"categories_sizes":[],"default_left":[0,0,0,0,0,0,0,0,0,0,0,0,0,0,0,0,0,0,0,0,0,0,0,0,0,0,0],"id":11,"left_children":[1,3,5,7,9,11,13,15,17,-1,19,21,23,-1,25,-1,-1,-1,-1,-1,-1,-1,-1,-1,-1,-1,-1],"loss_changes":[4.0027457E2,2.605513E2,2.8259924E2,9.649173E1,2.2372162E1,1.9234259E2,6.3631134E0,6.827874E1,1.5831299E2,0E0,2.5809772E1,2.2211908E2,1.4909808E2,0E0,7.226158E0,0E0,0E0,0E0,0E0,0E0,0E0,0E0,0E0,0E0,0E0,0E0,0E0],"parents":[2147483647,0,0,1,1,2,2,3,3,4,4,5,5,6,6,7,7,8,8,10,10,11,11,12,12,14,14],"right_children":[2,4,6,8,10,12,14,16,18,-1,20,22,24,-1,26,-1,-1,-1,-1,-1,-1,-1,-1,-1,-1,-1,-1],"split_conditions":[5E0,6E0,1E0,2E0,1E0,5E0,4E0,1E0,1E0,-8.429644E-2,1E0,1E0,2E0,-9.1390215E-2,9.445807E0,5.704586E-3,9.5582545E-2,-6.6117E-2,8.956985E-3,4.0254258E-2,-8.667553E-2,7.678236E-2,-1.8996404E-2,4.7537155E-2,-9.332006E-3,-7.6449774E-2,-2.6317649E-2],"split_indices":[31,50,47,49,24,50,52,48,65,0,31,65,52,0,2,0,0,0,0,0,0,0,0,0,0,0,0],"split_type":[0,0,0,0,0,0,0,0,0,0,0,0,0,0,0,0,0,0,0,0,0,0,0,0,0,0,0],"sum_hessian":[2.335414E3,9.583706E2,1.3770435E3,6.844265E2,2.739441E2,1.2774082E3,9.963518E1,2.8132553E2,4.0310098E2,2.5265312E2,2.1290972E1,5.1666797E2,7.6074023E2,5.2976032E1,4.6659145E1,2.4760814E2,3.37174E1,2.0314131E2,1.9995966E2,1.1531442E1,9.75953E0,4.0620114E2,1.1046683E2,2.4312901E2,5.1761127E2,2.8336199E1,1.8322947E1],"tree_param":{"num_deleted":"0","num_feature":"67","num_nodes":"27","size_leaf_vector":"1"}},{"base_weights":[-8.0506504E-4,4.7862473E-1,-3.4029666E-1,8.409128E-1,2.3291592E-2,-4.1466486E-1,9.5819965E-2,1.0846504E0,-4.0302682E-1,-6.544086E-1,3.5687548E-1,-8.3018106E-1,-7.514748E-3,6.8117365E-2,-7.9753384E-2,-8.517251E-2,1.5844269E-2,9.676735E-2,-5.0200373E-2,-3.0335844E-2,4.068709E-2,-1.8042423E-3,-7.169365E-2,5.4272104E-2,-2.19289E-2],"categories":[],"categories_nodes":[],"categories_segments":[],"categories_sizes":[],"default_left":[0,0,0,0,0,0,0,0,0,0,0,0,0,0,0,0,0,0,0,0,0,0,0,0,0],"id":12,"left_children":[1,3,5,7,9,11,-1,13,15,17,19,21,23,-1,-1,-1,-1,-1,-1,-1,-1,-1,-1,-1,-1],"loss_changes":[3.7763895E2,1.5864981E2,1.9636113E2,1.628371E2,9.681664E1,2.2143144E2,0E0,5.628839E1,6.037805E1,5.972987E1,7.984563E1,1.8899597E2,2.1650153E2,0E0,0E0,0E0,0E0,0E0,0E0,0E0,0E0,0E0,0E0,0E0,0E0],"parents":[2147483647,0,0,1,1,2,2,3,3,4,4,5,5,7,7,8,8,9,9,10,10,11,11,12,12],"right_children":[2,4,6,8,10,12,-1,14,16,18,20,22,24,-1,-1,-1,-1,-1,-1,-1,-1,-1,-1,-1,-1],"split_conditions":[2E0,5E0,1E0,1E0,5E0,1E0,9.5819965E-2,1E0,4E0,1E0,2E0,5E0,2E0,6.8117365E-2,-7.9753384E-2,-8.517251E-2,1.5844269E-2,9.676735E-2,-5.0200373E-2,-3.0335844E-2,4.068709E-2,-1.8042423E-3,-7.169365E-2,5.4272104E-2,-2.19289E-2],"split_indices":[49,50,44,65,31,65,0,56,33,5,33,50,52,0,0,0,0,0,0,0,0,0,0,0,0],"split_type":[0,0,0,0,0,0,0,0,0,0,0,0,0,0,0,0,0,0,0,0,0,0,0,0,0],"sum_hessian":[2.318185E3,9.608556E2,1.3573295E3,5.346288E2,4.2622684E2,1.3079078E3,4.9421524E1,4.4714346E2,8.7485275E1,1.4027867E2,2.8594815E2,6.4678937E2,6.611185E2,4.384747E2,8.668778E0,3.421737E1,5.326791E1,9.854114E0,1.3042456E2,7.744631E1,2.0850185E2,2.0285251E2,4.4393686E2,1.859125E2,4.7520602E2],"tree_param":{"num_deleted":"0","num_feature":"67","num_nodes":"25","size_leaf_vector":"1"}},{"base_weights":[-1.480623E-3,-4.6755502E-1,3.2077336E-1,-1.5608242E-1,-1.2724366E0,4.4115725E-1,-1.2548357E0,-4.17615E-1,4.514987E-1,-8.09821E-2,-3.8132206E-1,-2.523003E-1,6.523048E-1,-9.354956E-2,3.476515E-1,-3.9954033E-2,3.5519537E-2,-4.1427758E-2,4.4585504E-2,8.434863E-2,-5.3474974E-2,5.7562884E-2,-8.179854E-2,4.270191E-2,-1.0488173E-1,-5.4478925E-2,9.7523406E-2],"categories":[],"categories_nodes":[],"categories_segments":[],"categories_sizes":[],"default_left":[0,0,0,0,0,0,0,0,0,0,0,0,0,0,0,0,0,0,0,0,0,0,0,0,0,0,0],"id":13,"left_children":[1,3,5,7,9,11,13,15,17,-1,19,21,23,-1,25,-1,-1,-1,-1,-1,-1,-1,-1,-1,-1,-1,-1],"loss_changes":[3.429702E2,2.3381721E2,2.566295E2,1.07312935E2,1.7407654E1,1.839192E2,4.740219E1,1.1866252E2,6.822475E1,0E0,2.1450047E1,3.966138E2,1.3843686E2,0E0,2.7391726E1,0E0,0E0,0E0,0E0,0E0,0E0,0E0,0E0,0E0,0E0,0E0,0E0],"parents":[2147483647,0,0,1,1,2,2,3,3,4,4,5,5,6,6,7,7,8,8,10,10,11,11,12,12,14,14],"right_children":[2,4,6,8,10,12,14,16,18,-1,20,22,24,-1,26,-1,-1,-1,-1,-1,-1,-1,-1,-1,-1,-1,-1],"split_conditions":[5E0,6E0,1E0,8E0,1E0,2E0,1.6E1,1E0,1E0,-8.09821E-2,1E0,1E0,1E0,-9.354956E-2,1E0,-3.9954033E-2,3.5519537E-2,-4.1427758E-2,4.4585504E-2,8.434863E-2,-5.3474974E-2,5.7562884E-2,-8.179854E-2,4.270191E-2,-1.0488173E-1,-5.4478925E-2,9.7523406E-2],"split_indices":[31,50,47,33,24,33,33,28,20,0,43,65,25,0,16,0,0,0,0,0,0,0,0,0,0,0,0],"split_type":[0,0,0,0,0,0,0,0,0,0,0,0,0,0,0,0,0,0,0,0,0,0,0,0,0,0,0],"sum_hessian":[2.2815112E3,9.32455E2,1.3490562E3,6.731527E2,2.5930234E2,1.2539673E3,9.508896E1,4.7080704E2,2.0234567E2,2.3813956E2,2.1162775E1,2.926481E2,9.6131915E2,7.993565E1,1.5153304E1,3.7815137E2,9.2655655E1,4.0880013E1,1.6146565E2,4.3079405E0,1.6854834E1,1.4004716E2,1.5260094E2,9.387932E2,2.2525944E1,7.788717E0,7.364588E0],"tree_param":{"num_deleted":"0","num_feature":"67","num_nodes":"27","size_leaf_vector":"1"}},{"base_weights":[5.1232344E-3,-4.608224E-1,3.3147696E-1,1.968254E-2,-7.2112757E-1,3.9738336E-1,-9.387738E-2,-2.6295716E-1,1.27774E0,-1.0818031E0,-3.6362454E-2,7.9643035E-1,1.7639123E-2,-4.575163E-3,-8.8696375E-2,8.0687985E-2,1.3796565E-2,-6.990756E-2,-1.300461E-2,8.569333E-2,-2.795564E-2,7.139231E-2,7.46301E-3,-5.8961242E-2,2.4456758E-2],"categories":[],"categories_nodes":[],"categories_segments":[],"categories_sizes":[],"default_left":[0,0,0,0,0,0,0,0,0,0,0,0,0,0,0,0,0,0,0,0,0,0,0,0,0],"id":14,"left_children":[1,3,5,7,9,11,-1,13,15,17,19,21,23,-1,-1,-1,-1,-1,-1,-1,-1,-1,-1,-1,-1],"loss_changes":[3.4280615E2,1.1616086E2,1.6629663E2,1.1670287E2,1.4872357E2,1.9425966E2,0E0,6.0710365E1,3.921196E0,2.8182312E1,1.3205296E2,1.6513684E2,2.5705823E2,0E0,0E0,0E0,0E0,0E0,0E0,0E0,0E0,0E0,0E0,0E0,0E0],"parents":[2147483647,0,0,1,1,2,2,3,3,4,4,5,5,7,7,8,8,9,9,10,10,11,11,12,12],"right_children":[2,4,6,8,10,12,-1,14,16,18,20,22,24,-1,-1,-1,-1,-1,-1,-1,-1,-1,-1,-1,-1],"split_conditions":[2E0,5E0,1E0,6E0,1E0,1E0,-9.387738E-2,1E0,1E0,1.6E1,2E0,5E0,2E0,-4.575163E-3,-8.8696375E-2,8.0687985E-2,1.3796565E-2,-6.990756E-2,-1.300461E-2,8.569333E-2,-2.795564E-2,7.139231E-2,7.46301E-3,-5.8961242E-2,2.4456758E-2],"split_indices":[30,50,25,31,65,65,0,29,46,52,52,50,33,0,0,0,0,0,0,0,0,0,0,0,0],"split_type":[0,0,0,0,0,0,0,0,0,0,0,0,0,0,0,0,0,0,0,0,0,0,0,0,0],"sum_hessian":[2.2523633E3,9.275947E2,1.3247687E3,3.2626215E2,6.013326E2,1.2810317E3,4.3736874E1,2.6705548E2,5.920666E1,3.934939E2,2.0783867E2,6.2410535E2,6.5692645E2,2.3241344E2,3.4642063E1,5.5378918E1,3.8277447E0,3.5860593E2,3.4887978E1,4.660748E1,1.6123119E2,3.931626E2,2.3094273E2,1.8383888E2,4.730876E2],"tree_param":{"num_deleted":"0","num_feature":"67","num_nodes":"25","size_leaf_vector":"1"}},{"base_weights":[1.1954894E-2,-4.378156E-1,3.231781E-1,3.46327E-3,-6.972126E-1,3.8734567E-1,-9.1043755E-2,-3.4617987E-1,4.010499E-1,-1.0392665E0,-1.7496002E-3,7.5886846E-1,4.233013E-2,-2.3252363E-3,-7.816241E-2,4.139236E-2,-7.95631E-3,-6.8000905E-2,8.741125E-2,8.046351E-2,-2.2073148E-2,1.4380934E-3,6.52813E-2,2.2831107E-2,-5.6596875E-2],"categories":[],"categories_nodes":[],"categories_segments":[],"categories_sizes":[],"default_left":[0,0,0,0,0,0,0,0,0,0,0,0,0,0,0,0,0,0,0,0,0,0,0,0,0],"id":15,"left_children":[1,3,5,7,9,11,-1,13,15,17,19,21,23,-1,-1,-1,-1,-1,-1,-1,-1,-1,-1,-1,-1],"loss_changes":[3.125704E2,1.04536835E2,1.564556E2,4.7275852E1,1.3681815E2,1.6353654E2,0E0,5.316164E1,2.4617916E1,9.2188965E1,9.421182E1,1.4858804E2,2.2125142E2,0E0,0E0,0E0,0E0,0E0,0E0,0E0,0E0,0E0,0E0,0E0,0E0],"parents":[2147483647,0,0,1,1,2,2,3,3,4,4,5,5,7,7,8,8,9,9,10,10,11,11,12,12],"right_children":[2,4,6,8,10,12,-1,14,16,18,20,22,24,-1,-1,-1,-1,-1,-1,-1,-1,-1,-1,-1,-1],"split_conditions":[2E0,2E0,1E0,5E0,1E0,1E0,-9.1043755E-2,3E0,1E0,1E0,2E0,5E0,4E0,-2.3252363E-3,-7.816241E-2,4.139236E-2,-7.95631E-3,-6.8000905E-2,8.741125E-2,8.046351E-2,-2.2073148E-2,1.4380934E-3,6.52813E-2,2.2831107E-2,-5.6596875E-2],"split_indices":[30,49,25,31,65,65,0,31,65,44,52,31,54,0,0,0,0,0,0,0,0,0,0,0,0],"split_type":[0,0,0,0,0,0,0,0,0,0,0,0,0,0,0,0,0,0,0,0,0,0,0,0,0],"sum_hessian":[2.2309697E3,9.1223224E2,1.3187375E3,3.3808243E2,5.741498E2,1.2750745E3,4.3663116E1,1.7995598E2,1.5812646E2,3.8452972E2,1.8962004E2,6.1337494E2,6.6169946E2,1.3697348E2,4.29825E1,1.0240856E2,5.5717896E1,3.7108887E2,1.3440864E1,4.0055042E1,1.4956499E2,1.9007266E2,4.2330225E2,4.9311362E2,1.6858589E2],"tree_param":{"num_deleted":"0","num_feature":"67","num_nodes":"25","size_leaf_vector":"1"}},{"base_weights":[1.4923526E-2,-4.228764E-1,3.1440672E-1,1.8186081E-2,-6.625985E-1,4.2395288E-1,-6.7077166E-1,-2.5320885E-1,1.2374843E0,-1.0238454E0,1.5596597E-2,8.9525837E-1,1.6323456E-1,6.230727E-1,-9.4060653E-1,3.8969632E-2,-2.8922817E-2,-9.09577E-2,7.914993E-2,-6.547994E-2,8.733382E-2,-6.491092E-2,3.2738872E-2,5.9545267E-2,-8.072399E-4,-7.4210893E-3,4.7381654E-2,9.797539E-2,-2.8483476E-2,-7.1438365E-2,1.47595685E-2],"categories":[],"categories_nodes":[],"categories_segments":[],"categories_sizes":[],"default_left":[0,0,0,0,0,0,0,0,0,0,0,0,0,0,0,0,0,0,0,0,0,0,0,0,0,0,0,0,0,0,0],"id":16,"left_children":[1,3,5,7,9,11,13,15,17,19,21,23,25,27,29,-1,-1,-1,-1,-1,-1,-1,-1,-1,-1,-1,-1,-1,-1,-1,-1],"loss_changes":[2.8880524E2,9.461623E1,1.4144089E2,1.04894104E2,1.4204312E2,1.4456398E2,4.64155E1,5.3883797E1,1.49785385E1,6.488101E1,1.18360466E2,3.7027435E1,1.3660472E2,2.655479E1,3.2636635E1,0E0,0E0,0E0,0E0,0E0,0E0,0E0,0E0,0E0,0E0,0E0,0E0,0E0,0E0,0E0,0E0],"parents":[2147483647,0,0,1,1,2,2,3,3,4,4,5,5,6,6,7,7,8,8,9,9,10,10,11,11,12,12,13,13,14,14],"right_children":[2,4,6,8,10,12,14,16,18,20,22,24,26,28,30,-1,-1,-1,-1,-1,-1,-1,-1,-1,-1,-1,-1,-1,-1,-1,-1],"split_conditions":[2E0,5E0,1E0,6E0,1E0,2E0,3E0,5E-1,1E0,1E0,2E0,1.6E1,4E0,2E0,1.6E1,3.8969632E-2,-2.8922817E-2,-9.09577E-2,7.914993E-2,-6.547994E-2,8.733382E-2,-6.491092E-2,3.2738872E-2,5.9545267E-2,-8.072399E-4,-7.4210893E-3,4.7381654E-2,9.797539E-2,-2.8483476E-2,-7.1438365E-2,1.47595685E-2],"split_indices":[30,50,47,31,65,52,32,54,5,44,33,33,35,50,33,0,0,0,0,0,0,0,0,0,0,0,0,0,0,0,0],"split_type":[0,0,0,0,0,0,0,0,0,0,0,0,0,0,0,0,0,0,0,0,0,0,0,0,0,0,0,0,0,0,0],"sum_hessian":[2.200694E3,8.93751E2,1.3069431E3,3.1503857E2,5.787124E2,1.1766735E3,1.3026965E2,2.583309E2,5.67077E1,3.7725458E2,2.0145781E2,4.1821835E2,7.584551E2,2.2253963E1,1.08015686E2,5.1872013E1,2.0645888E2,1.1278758E0,5.5579823E1,3.678032E2,9.451382E0,6.527275E1,1.3618506E2,3.7773718E2,4.0481144E1,5.207524E2,2.3770273E2,1.1337386E1,1.0916578E1,8.9213715E1,1.880197E1],"tree_param":{"num_deleted":"0","num_feature":"67","num_nodes":"31","size_leaf_vector":"1"}},{"base_weights":[7.3017008E-3,4.3072677E-1,-2.8808805E-1,7.5412446E-1,3.3692013E-2,-3.5417172E-1,8.8073365E-2,9.89485E-1,-3.7757877E-1,-5.853374E-1,2.9629165E-1,-7.4076897E-1,-2.5643478E-3,6.317537E-2,-5.5816427E-2,-7.862274E-2,1.2150545E-2,9.4817445E-2,-4.965344E-2,-9.459157E-3,4.195156E-2,-6.811046E-2,-9.381399E-3,2.0428287E-2,-5.1552594E-2],"categories":[],"categories_nodes":[],"categories_segments":[],"categories_sizes":[],"default_left":[0,0,0,0,0,0,0,0,0,0,0,0,0,0,0,0,0,0,0,0,0,0,0,0,0],"id":17,"left_children":[1,3,5,7,9,11,-1,13,15,17,19,21,23,-1,-1,-1,-1,-1,-1,-1,-1,-1,-1,-1,-1],"loss_changes":[2.7286667E2,1.15086136E2,1.4964685E2,1.3196094E2,6.576238E1,1.6845866E2,0E0,5.0819763E1,4.6680023E1,6.452572E1,5.2046215E1,1.3587991E2,1.9131085E2,0E0,0E0,0E0,0E0,0E0,0E0,0E0,0E0,0E0,0E0,0E0,0E0],"parents":[2147483647,0,0,1,1,2,2,3,3,4,4,5,5,7,7,8,8,9,9,10,10,11,11,12,12],"right_children":[2,4,6,8,10,12,-1,14,16,18,20,22,24,-1,-1,-1,-1,-1,-1,-1,-1,-1,-1,-1,-1],"split_conditions":[2E0,5E0,1E0,1E0,2E0,1E0,8.8073365E-2,1E0,4E0,1E0,1E0,5E0,4E0,6.317537E-2,-5.5816427E-2,-7.862274E-2,1.2150545E-2,9.4817445E-2,-4.965344E-2,-9.459157E-3,4.195156E-2,-6.811046E-2,-9.381399E-3,2.0428287E-2,-5.1552594E-2],"split_indices":[49,50,44,65,33,65,0,43,33,5,65,31,54,0,0,0,0,0,0,0,0,0,0,0,0],"split_type":[0,0,0,0,0,0,0,0,0,0,0,0,0,0,0,0,0,0,0,0,0,0,0,0,0],"sum_hessian":[2.1796248E3,8.955067E2,1.284118E3,4.9302362E2,4.0248312E2,1.2383142E3,4.580385E1,4.0824622E2,8.477739E1,1.1951646E2,2.8296664E2,5.892827E2,6.490315E2,3.9562445E2,1.2621785E1,3.202355E1,5.275384E1,1.1467172E1,1.08049286E2,1.3334123E2,1.4962541E2,3.5127414E2,2.3800859E2,4.6387827E2,1.8515321E2],"tree_param":{"num_deleted":"0","num_feature":"67","num_nodes":"25","size_leaf_vector":"1"}},{"base_weights":[1.4074007E-3,-4.0935364E-1,2.8092492E-1,-8.621601E-3,-6.2820876E-1,3.8781255E-1,-6.8025386E-1,-2.4538872E-1,1.1735882E0,-3.3489847E-1,-1.0715778E0,8.2334834E-1,1.5609358E-1,6.714827E-1,-8.808858E-1,-3.0369845E-3,-7.270943E-2,-9.224012E-2,7.678633E-2,-5.2301463E-2,-1.041742E-3,-6.7030914E-2,7.738128E-2,5.825988E-2,1.2236334E-2,-6.3466327E-3,4.357474E-2,9.420508E-2,-9.011476E-2,-7.086848E-2,2.554909E-2],"categories":[],"categories_nodes":[],"categories_segments":[],"categories_sizes":[],"default_left":[0,0,0,0,0,0,0,0,0,0,0,0,0,0,0,0,0,0,0,0,0,0,0,0,0,0,0,0,0,0,0],"id":18,"left_children":[1,3,5,7,9,11,13,15,17,19,21,23,25,27,29,-1,-1,-1,-1,-1,-1,-1,-1,-1,-1,-1,-1,-1,-1,-1,-1],"loss_changes":[2.470791E2,7.64193E1,1.3182666E2,8.672932E1,7.293315E1,1.1623932E2,3.544544E1,4.852549E1,1.6850212E1,5.804913E1,2.555542E1,3.6401367E1,1.12632866E2,3.5905624E1,4.4578766E1,0E0,0E0,0E0,0E0,0E0,0E0,0E0,0E0,0E0,0E0,0E0,0E0,0E0,0E0,0E0,0E0],"parents":[2147483647,0,0,1,1,2,2,3,3,4,4,5,5,6,6,7,7,8,8,9,9,10,10,11,11,12,12,13,13,14,14],"right_children":[2,4,6,8,10,12,14,16,18,20,22,24,26,28,30,-1,-1,-1,-1,-1,-1,-1,-1,-1,-1,-1,-1,-1,-1,-1,-1],"split_conditions":[2E0,5E0,1E0,6E0,1E0,2E0,1E0,1E0,1E0,2E0,1E0,1E0,4E0,2E0,1.6E1,-3.0369845E-3,-7.270943E-2,-9.224012E-2,7.678633E-2,-5.2301463E-2,-1.041742E-3,-6.7030914E-2,7.738128E-2,5.825988E-2,1.2236334E-2,-6.3466327E-3,4.357474E-2,9.420508E-2,-9.011476E-2,-7.086848E-2,2.554909E-2],"split_indices":[30,50,47,31,66,52,34,43,5,33,44,43,35,50,33,0,0,0,0,0,0,0,0,0,0,0,0,0,0,0,0],"split_type":[0,0,0,0,0,0,0,0,0,0,0,0,0,0,0,0,0,0,0,0,0,0,0,0,0,0,0,0,0,0,0],"sum_hessian":[2.149976E3,8.704111E2,1.279565E3,3.078201E2,5.6259094E2,1.1520482E3,1.2751671E2,2.5711816E2,5.0701927E1,3.3965076E2,2.229402E2,3.9918753E2,7.5286066E2,1.6177265E1,1.1133944E2,2.1486694E2,4.2251236E1,1.403067E0,4.929886E1,1.25592445E2,2.1405832E2,2.1923294E2,3.7072558E0,3.2189038E2,7.729716E1,5.164635E2,2.3639717E2,1.164158E1,4.535685E0,9.061414E1,2.07253E1],"tree_param":{"num_deleted":"0","num_feature":"67","num_nodes":"31","size_leaf_vector":"1"}},{"base_weights":[-7.3095364E-3,-4.7799623E-1,2.1178E-1,-6.930979E-1,4.0689373E-1,4.5769107E-1,-3.8133022E-1,-8.195508E-1,6.410765E-1,1.2635473E0,-3.4248143E-1,4.354669E-2,1.0432409E0,2.4061574E-1,-9.0382594E-1,-7.401206E-2,-2.7007885E-2,-1.7695358E-2,8.862626E-2,-7.016959E-2,9.300153E-2,4.403162E-2,-7.012008E-2,5.154263E-2,-4.647118E-2,-7.554001E-2,7.016707E-2,-4.4553265E-2,5.770323E-2,-7.5397536E-2,8.064731E-2],"categories":[],"categories_nodes":[],"categories_segments":[],"categories_sizes":[],"default_left":[0,0,0,0,0,0,0,0,0,0,0,0,0,0,0,0,0,0,0,0,0,0,0,0,0,0,0,0,0,0,0],"id":19,"left_children":[1,3,5,7,9,11,13,15,17,19,21,23,25,27,29,-1,-1,-1,-1,-1,-1,-1,-1,-1,-1,-1,-1,-1,-1,-1,-1],"loss_changes":[2.1844151E2,1.283454E2,2.1100133E2,9.190097E1,8.5297195E1,2.4785855E2,1.38069E2,7.517157E1,3.7566936E1,4.495543E1,6.426218E1,4.008236E2,1.2451422E2,1.3858095E2,1.8468677E2,0E0,0E0,0E0,0E0,0E0,0E0,0E0,0E0,0E0,0E0,0E0,0E0,0E0,0E0,0E0,0E0],"parents":[2147483647,0,0,1,1,2,2,3,3,4,4,5,5,6,6,7,7,8,8,9,9,10,10,11,11,12,12,13,13,14,14],"right_children":[2,4,6,8,10,12,14,16,18,20,22,24,26,28,30,-1,-1,-1,-1,-1,-1,-1,-1,-1,-1,-1,-1,-1,-1,-1,-1],"split_conditions":[2E0,1E0,4E0,1E0,1E0,1E0,1E0,5E0,1E0,2E0,1E0,5E0,1E0,4E0,1.6E1,-7.401206E-2,-2.7007885E-2,-1.7695358E-2,8.862626E-2,-7.016959E-2,9.300153E-2,4.403162E-2,-7.012008E-2,5.154263E-2,-4.647118E-2,-7.554001E-2,7.016707E-2,-4.4553265E-2,5.770323E-2,-7.5397536E-2,8.064731E-2],"split_indices":[33,24,54,37,26,65,65,31,64,9,65,50,45,31,33,0,0,0,0,0,0,0,0,0,0,0,0,0,0,0,0],"split_type":[0,0,0,0,0,0,0,0,0,0,0,0,0,0,0,0,0,0,0,0,0,0,0,0,0,0,0,0,0,0,0],"sum_hessian":[2.11629E3,6.7180927E2,1.4444807E3,5.4061237E2,1.311969E2,1.0212752E3,4.2320547E2,4.941615E2,4.6450855E1,6.08965E1,7.03004E1,5.9881976E2,4.2245547E2,1.9346109E2,2.2974438E2,2.3192244E2,2.6223904E2,2.2220493E1,2.4230362E1,6.0902367E0,5.4806263E1,3.057698E1,3.9723415E1,2.9985568E2,2.9896405E2,2.1489172E1,4.009663E2,8.184376E1,1.11617325E2,1.9895999E2,3.078439E1],"tree_param":{"num_deleted":"0","num_feature":"67","num_nodes":"31","size_leaf_vector":"1"}},{"base_weights":[1.4337628E-3,3.7766767E-1,-2.6269156E-1,6.693607E-1,3.4968432E-2,-3.22466E-1,8.493243E-2,3.7937424E-1,7.497982E-2,9.3342416E-2,-6.525851E-2,-3.892965E-1,1.0294024E0,3.958527E-2,-3.146087E-2,-4.632386E-2,1.3043295E-2,-4.817902E-2,-1.034381E-2,7.751351E-2,-2.3998176E-3],"categories":[],"categories_nodes":[],"categories_segments":[],"categories_sizes":[],"default_left":[0,0,0,0,0,0,0,0,0,0,0,0,0,0,0,0,0,0,0,0,0],"id":20,"left_children":[1,3,5,7,9,11,-1,13,-1,-1,15,17,19,-1,-1,-1,-1,-1,-1,-1,-1],"loss_changes":[2.0845853E2,8.646867E1,1.24095146E2,7.817142E1,6.0900276E1,1.0799623E2,0E0,7.9671165E1,0E0,0E0,7.512151E1,1.01752945E2,1.5876541E1,0E0,0E0,0E0,0E0,0E0,0E0,0E0,0E0],"parents":[2147483647,0,0,1,1,2,2,3,3,4,4,5,5,7,7,10,10,11,11,12,12],"right_children":[2,4,6,8,10,12,-1,14,-1,-1,16,18,20,-1,-1,-1,-1,-1,-1,-1,-1],"split_conditions":[2E0,5E0,1E0,3E0,1E0,2E0,8.493243E-2,8E0,7.497982E-2,9.3342416E-2,2E0,2E0,1.6E1,3.958527E-2,-3.146087E-2,-4.632386E-2,1.3043295E-2,-4.817902E-2,-1.034381E-2,7.751351E-2,-2.3998176E-3],"split_indices":[49,50,44,50,5,38,0,52,0,0,33,33,52,0,0,0,0,0,0,0,0],"split_type":[0,0,0,0,0,0,0,0,0,0,0,0,0,0,0,0,0,0,0,0,0],"sum_hessian":[2.0957415E3,8.642413E2,1.2315004E3,4.6634897E2,3.978923E2,1.189926E3,4.157432E1,3.12061E2,1.5428796E2,2.3704422E1,3.7418787E2,1.1345508E3,5.5375248E1,2.38375E2,7.368602E1,1.06395775E2,2.6779208E2,3.893161E2,7.452346E2,4.429481E1,1.1080437E1],"tree_param":{"num_deleted":"0","num_feature":"67","num_nodes":"21","size_leaf_vector":"1"}},{"base_weights":[2.6574314E-3,3.795725E-1,-2.5913256E-1,6.6558516E-1,4.786792E-2,-3.1867686E-1,8.3549246E-2,8.906194E-1,-3.6965194E-1,9.0172224E-2,-4.8042312E-2,-6.6892624E-1,-5.761502E-3,5.660508E-2,-7.730238E-2,-7.814588E-2,1.2885771E-2,-4.299197E-2,1.3160021E-2,5.7205674E-4,-6.0510833E-2,-1.9450592E-2,4.9462065E-2],"categories":[],"categories_nodes":[],"categories_segments":[],"categories_sizes":[],"default_left":[0,0,0,0,0,0,0,0,0,0,0,0,0,0,0,0,0,0,0,0,0,0,0],"id":21,"left_children":[1,3,5,7,9,11,-1,13,15,-1,17,19,21,-1,-1,-1,-1,-1,-1,-1,-1,-1,-1],"loss_changes":[2.0570032E2,8.103182E1,1.2142946E2,1.0720184E2,5.543207E1,1.3022398E2,0E0,4.4603424E1,4.531919E1,0E0,6.6851616E1,1.2918358E2,1.664142E2,0E0,0E0,0E0,0E0,0E0,0E0,0E0,0E0,0E0,0E0],"parents":[2147483647,0,0,1,1,2,2,3,3,4,4,5,5,7,7,8,8,10,10,11,11,12,12],"right_children":[2,4,6,8,10,12,-1,14,16,-1,18,20,22,-1,-1,-1,-1,-1,-1,-1,-1,-1,-1],"split_conditions":[2E0,5E0,1E0,1E0,1E0,1E0,8.3549246E-2,1E0,4E0,9.0172224E-2,2E0,5E0,4E0,5.660508E-2,-7.730238E-2,-7.814588E-2,1.2885771E-2,-4.299197E-2,1.3160021E-2,5.7205674E-4,-6.0510833E-2,-1.9450592E-2,4.9462065E-2],"split_indices":[49,50,44,65,5,65,0,56,33,0,33,50,35,0,0,0,0,0,0,0,0,0,0],"split_type":[0,0,0,0,0,0,0,0,0,0,0,0,0,0,0,0,0,0,0,0,0,0,0],"sum_hessian":[2.0826785E3,8.534559E2,1.2292225E3,4.5775208E2,3.957038E2,1.1872275E3,4.1994946E1,3.7613055E2,8.162153E1,2.3563597E1,3.721402E2,5.5965845E2,6.275691E2,3.6778586E2,8.344675E0,3.0966906E1,5.065462E1,1.05840096E2,2.663001E2,1.8700803E2,3.7265042E2,4.540264E2,1.7354271E2],"tree_param":{"num_deleted":"0","num_feature":"67","num_nodes":"23","size_leaf_vector":"1"}},{"base_weights":[-1.9405413E-3,-3.6824015E-1,2.4374399E-1,-1.1300557E-1,-1.1510309E0,3.4054863E-1,-1.0214039E0,-3.7274408E-1,5.7323503E-1,-1.1952735E0,8.070998E-1,-2.164355E-1,5.142549E-1,-1.3973746E0,6.1302024E-1,-8.897963E-3,-7.978238E-2,-3.833295E-2,5.1249765E-2,-7.4358456E-2,-3.777851E-2,7.423063E-2,-1.009807E-2,5.344568E-2,-7.126391E-2,4.3657172E-2,-6.850864E-3,-8.442391E-2,-2.4179017E-2,8.4795125E-2,-5.1821213E-2],"categories":[],"categories_nodes":[],"categories_segments":[],"categories_sizes":[],"default_left":[0,0,0,0,0,0,0,0,0,0,0,0,0,0,0,0,0,0,0,0,0,0,0,0,0,0,0,0,0,0,0],"id":22,"left_children":[1,3,5,7,9,11,13,15,17,19,21,23,25,27,29,-1,-1,-1,-1,-1,-1,-1,-1,-1,-1,-1,-1,-1,-1,-1,-1],"loss_changes":[1.8411198E2,1.6396269E2,1.5031744E2,1.10807686E2,1.845047E1,1.10237274E2,5.4493637E1,9.6608795E1,5.869125E1,4.1458435E0,2.329429E0,2.928129E2,1.1646147E2,1.1972046E-1,2.1331827E1,0E0,0E0,0E0,0E0,0E0,0E0,0E0,0E0,0E0,0E0,0E0,0E0,0E0,0E0,0E0,0E0],"parents":[2147483647,0,0,1,1,2,2,3,3,4,4,5,5,6,6,7,7,8,8,9,9,10,10,11,11,12,12,13,13,14,14],"right_children":[2,4,6,8,10,12,14,16,18,20,22,24,26,28,30,-1,-1,-1,-1,-1,-1,-1,-1,-1,-1,-1,-1,-1,-1,-1,-1],"split_conditions":[5E0,6E0,1E0,4E0,1E0,2E0,1.6E1,1E0,1E0,1E0,1E0,1E0,4E0,1E0,4.1743875E0,-8.897963E-3,-7.978238E-2,-3.833295E-2,5.1249765E-2,-7.4358456E-2,-3.777851E-2,7.423063E-2,-1.009807E-2,5.344568E-2,-7.126391E-2,4.3657172E-2,-6.850864E-3,-8.442391E-2,-2.4179017E-2,8.4795125E-2,-5.1821213E-2],"split_indices":[31,50,47,35,65,33,33,16,20,24,54,65,54,17,0,0,0,0,0,0,0,0,0,0,0,0,0,0,0,0,0],"split_type":[0,0,0,0,0,0,0,0,0,0,0,0,0,0,0,0,0,0,0,0,0,0,0,0,0,0,0,0,0,0,0],"sum_hessian":[2.0438243E3,8.203047E2,1.2235197E3,6.194673E2,2.0083742E2,1.1372334E3,8.628625E1,4.4971088E2,1.6975641E2,1.9678087E2,4.056546E0,2.7029486E2,8.669385E2,7.026748E1,1.6018768E1,3.6521E2,8.45009E1,3.1701202E1,1.380552E2,1.8146307E2,1.5317795E1,2.628986E0,1.4275603E0,1.26349686E2,1.4394519E2,6.470846E2,2.1985391E2,6.9178314E1,1.0891631E0,1.0416829E1,5.601939E0],"tree_param":{"num_deleted":"0","num_feature":"67","num_nodes":"31","size_leaf_vector":"1"}},{"base_weights":[-8.523123E-3,-3.759545E-1,2.3914173E-1,-2.852091E-1,-1.1936835E0,2.969866E-1,-8.707365E-2,2.483941E-1,-4.7943595E-1,-1.4782134E0,4.2036527E-1,6.4797765E-1,-1.1656626E-2,-1.2316625E-2,8.193695E-2,-4.0738087E-2,-5.6123646E-4,-7.781559E-2,-1.0366276E-1,-5.766058E-2,4.9269788E-2,-2.0156798E-3,5.8219414E-2,-5.0378412E-2,1.8056676E-2],"categories":[],"categories_nodes":[],"categories_segments":[],"categories_sizes":[],"default_left":[0,0,0,0,0,0,0,0,0,0,0,0,0,0,0,0,0,0,0,0,0,0,0,0,0],"id":23,"left_children":[1,3,5,7,9,11,-1,13,15,17,19,21,23,-1,-1,-1,-1,-1,-1,-1,-1,-1,-1,-1,-1],"loss_changes":[1.8277718E2,5.96707E1,1.17750046E2,7.569882E1,3.757554E1,1.2577623E2,0E0,9.925068E1,5.017356E1,8.6346436E-1,7.8968086E0,1.1938231E2,1.6039828E2,0E0,0E0,0E0,0E0,0E0,0E0,0E0,0E0,0E0,0E0,0E0,0E0],"parents":[2147483647,0,0,1,1,2,2,3,3,4,4,5,5,7,7,8,8,9,9,10,10,11,11,12,12],"right_children":[2,4,6,8,10,12,-1,14,16,18,20,22,24,-1,-1,-1,-1,-1,-1,-1,-1,-1,-1,-1,-1],"split_conditions":[2E0,1E0,1E0,2E0,1E0,1E0,-8.707365E-2,1E0,4E0,4E0,2E0,5E0,2E0,-1.2316625E-2,8.193695E-2,-4.0738087E-2,-5.6123646E-4,-7.781559E-2,-1.0366276E-1,-5.766058E-2,4.9269788E-2,-2.0156798E-3,5.8219414E-2,-5.0378412E-2,1.8056676E-2],"split_indices":[30,43,25,52,27,65,0,65,35,31,9,31,33,0,0,0,0,0,0,0,0,0,0,0,0],"split_type":[0,0,0,0,0,0,0,0,0,0,0,0,0,0,0,0,0,0,0,0,0,0,0,0,0],"sum_hessian":[2.0065559E3,8.0771924E2,1.1988365E3,7.282521E2,7.946716E1,1.1599666E3,3.8870052E1,1.9426506E2,5.3398706E2,6.762939E1,1.1837774E1,5.4223456E2,6.17732E2,1.3874217E2,5.5522892E1,3.745572E2,1.5942986E2,4.2758835E1,2.4870552E1,2.3478887E0,9.489885E0,1.743925E2,3.6784204E2,1.6884035E2,4.4889166E2],"tree_param":{"num_deleted":"0","num_feature":"67","num_nodes":"25","size_leaf_vector":"1"}},{"base_weights":[4.0805764E-3,-3.4710968E-1,2.3982581E-1,-5.300463E-1,3.1419817E-2,2.9540008E-1,-8.440567E-2,-2.7267355E-2,-8.854727E-1,1.296429E0,-3.1215516E-1,6.2739563E-1,4.5814505E-3,-2.251139E-2,5.8354743E-2,-5.7080843E-2,7.752267E-2,8.094383E-2,2.753908E-2,-5.463403E-2,4.7591645E-2,6.062169E-2,2.4204773E-3,1.8441297E-2,-5.012493E-2],"categories":[],"categories_nodes":[],"categories_segments":[],"categories_sizes":[],"default_left":[0,0,0,0,0,0,0,0,0,0,0,0,0,0,0,0,0,0,0,0,0,0,0,0,0],"id":24,"left_children":[1,3,5,7,9,11,-1,13,15,17,19,21,23,-1,-1,-1,-1,-1,-1,-1,-1,-1,-1,-1,-1],"loss_changes":[1.6531036E2,5.555211E1,1.09741066E2,9.660716E1,1.14384605E2,1.1166082E2,0E0,7.862881E1,4.666658E1,1.8583527E0,1.3767061E2,1.21369064E2,1.5730605E2,0E0,0E0,0E0,0E0,0E0,0E0,0E0,0E0,0E0,0E0,0E0,0E0],"parents":[2147483647,0,0,1,1,2,2,3,3,4,4,5,5,7,7,8,8,9,9,10,10,11,11,12,12],"right_children":[2,4,6,8,10,12,-1,14,16,18,20,22,24,-1,-1,-1,-1,-1,-1,-1,-1,-1,-1,-1,-1],"split_conditions":[2E0,1E0,1E0,5E0,2E0,1E0,-8.440567E-2,3E0,1E0,1E0,4E0,5E0,4E0,-2.251139E-2,5.8354743E-2,-5.7080843E-2,7.752267E-2,8.094383E-2,2.753908E-2,-5.463403E-2,4.7591645E-2,6.062169E-2,2.4204773E-3,1.8441297E-2,-5.012493E-2],"split_indices":[30,65,25,50,52,65,0,50,44,21,35,50,54,0,0,0,0,0,0,0,0,0,0,0,0],"split_type":[0,0,0,0,0,0,0,0,0,0,0,0,0,0,0,0,0,0,0,0,0,0,0,0,0],"sum_hessian":[1.9947032E3,8.009917E2,1.1937117E3,5.397431E2,2.612486E2,1.1555316E3,3.817997E1,2.2398094E2,3.1576215E2,5.5207317E1,2.0604128E2,5.3902686E2,6.165048E2,1.666244E2,5.735653E1,3.070367E2,8.72543E0,5.136783E1,3.8394883E0,1.3378772E2,7.225355E1,3.257816E2,2.1324527E2,4.5362985E2,1.6287494E2],"tree_param":{"num_deleted":"0","num_feature":"67","num_nodes":"25","size_leaf_vector":"1"}},{"base_weights":[4.787891E-3,3.495856E-1,-2.323993E-1,6.085498E-1,5.814846E-2,-5.0702554E-1,2.2060392E-2,8.401908E-1,-3.6353904E-1,8.636388E-2,-2.8041428E-2,-1.0167015E0,7.609868E-2,3.1492722E-1,-6.9243836E-1,5.4312773E-2,-5.2145146E-2,-6.9202214E-2,8.304231E-3,-3.6483906E-2,1.3246322E-2,8.094228E-3,-6.692366E-2,-2.2264367E-2,4.86349E-2,-4.089534E-2,5.566497E-2,-7.185178E-2,6.435538E-2],"categories":[],"categories_nodes":[],"categories_segments":[],"categories_sizes":[],"default_left":[0,0,0,0,0,0,0,0,0,0,0,0,0,0,0,0,0,0,0,0,0,0,0,0,0,0,0,0,0],"id":25,"left_children":[1,3,5,7,9,11,13,15,17,-1,19,21,23,25,27,-1,-1,-1,-1,-1,-1,-1,-1,-1,-1,-1,-1,-1,-1],"loss_changes":[1.6031659E2,6.0259964E1,8.1171E1,9.553633E1,4.4921474E1,1.6609738E2,1.2656286E2,3.877852E1,3.2701332E1,0E0,5.1487213E1,3.4036194E1,8.6174965E1,2.6258063E2,1.5805452E2,0E0,0E0,0E0,0E0,0E0,0E0,0E0,0E0,0E0,0E0,0E0,0E0,0E0,0E0],"parents":[2147483647,0,0,1,1,2,2,3,3,4,4,5,5,6,6,7,7,8,8,10,10,11,11,12,12,13,13,14,14],"right_children":[2,4,6,8,10,12,14,16,18,-1,20,22,24,26,28,-1,-1,-1,-1,-1,-1,-1,-1,-1,-1,-1,-1,-1,-1],"split_conditions":[2E0,5E0,1E0,1E0,1E0,5E0,4E0,1E0,4E0,8.636388E-2,5E0,1.25E-1,4E0,2E0,8E0,5.4312773E-2,-5.2145146E-2,-6.9202214E-2,8.304231E-3,-3.6483906E-2,1.3246322E-2,8.094228E-3,-6.692366E-2,-2.2264367E-2,4.86349E-2,-4.089534E-2,5.566497E-2,-7.185178E-2,6.435538E-2],"split_indices":[49,50,65,65,5,31,54,43,33,0,31,61,52,33,35,0,0,0,0,0,0,0,0,0,0,0,0,0,0],"split_type":[0,0,0,0,0,0,0,0,0,0,0,0,0,0,0,0,0,0,0,0,0,0,0,0,0,0,0,0,0],"sum_hessian":[1.958308E3,7.979127E2,1.1603953E3,4.2191812E2,3.759946E2,5.576055E2,6.0278973E2,3.4083542E2,8.10827E1,2.1161844E1,3.5483276E2,2.9714465E2,2.6046088E2,4.2794003E2,1.7484967E2,3.2879816E2,1.2037289E1,3.1001904E1,5.00808E1,1.0608588E2,2.4874689E2,2.3426298E1,2.7371835E2,1.6220267E2,9.8258224E1,1.6291316E2,2.650269E2,1.3619638E2,3.865328E1],"tree_param":{"num_deleted":"0","num_feature":"67","num_nodes":"29","size_leaf_vector":"1"}},{"base_weights":[4.589231E-3,-3.3003026E-1,2.2979406E-1,-2.4253365E-1,-1.1386505E0,2.8307885E-1,-8.297777E-2,1.7733498E-1,-4.6675462E-1,-8.5087046E-2,3.630575E-1,3.70627E-1,-5.1878345E-1,2.9683504E-2,-2.0662036E-2,-1.1615491E-2,-5.647902E-2,-5.6689903E-2,4.7066793E-2,4.6597194E-2,9.932287E-3,4.288994E-2,-4.9659546E-2],"categories":[],"categories_nodes":[],"categories_segments":[],"categories_sizes":[],"default_left":[0,0,0,0,0,0,0,0,0,0,0,0,0,0,0,0,0,0,0,0,0,0,0],"id":26,"left_children":[1,3,5,7,9,11,-1,13,15,-1,17,19,21,-1,-1,-1,-1,-1,-1,-1,-1,-1,-1],"loss_changes":[1.456563E2,5.4736816E1,9.9672806E1,6.625638E1,3.226319E1,7.8760544E1,0E0,4.0807724E1,5.9252243E1,0E0,7.72155E0,8.393536E1,4.2727165E1,0E0,0E0,0E0,0E0,0E0,0E0,0E0,0E0,0E0,0E0],"parents":[2147483647,0,0,1,1,2,2,3,3,4,4,5,5,7,7,8,8,10,10,11,11,12,12],"right_children":[2,4,6,8,10,12,-1,14,16,-1,18,20,22,-1,-1,-1,-1,-1,-1,-1,-1,-1,-1],"split_conditions":[2E0,1E0,1E0,5E0,1E0,1E0,-8.297777E-2,8E0,1E0,-8.5087046E-2,2E0,2E0,3E0,2.9683504E-2,-2.0662036E-2,-1.1615491E-2,-5.647902E-2,-5.6689903E-2,4.7066793E-2,4.6597194E-2,9.932287E-3,4.288994E-2,-4.9659546E-2],"split_indices":[30,43,25,50,24,47,0,52,66,0,9,52,32,0,0,0,0,0,0,0,0,0,0],"split_type":[0,0,0,0,0,0,0,0,0,0,0,0,0,0,0,0,0,0,0,0,0,0,0],"sum_hessian":[1.9308531E3,7.765519E2,1.1543013E3,7.019026E2,7.464931E1,1.1181815E3,3.6119762E1,2.4441966E2,4.5748294E2,6.2983734E1,1.1665572E1,1.0085994E3,1.0958209E2,1.5199907E2,9.242058E1,2.9124637E2,1.6623656E2,2.5399625E0,9.12561E0,3.375669E2,6.710326E2,2.1680048E1,8.790205E1],"tree_param":{"num_deleted":"0","num_feature":"67","num_nodes":"23","size_leaf_vector":"1"}},{"base_weights":[2.4789735E-3,-1.0141555E-1,6.7794544E-1,-4.923129E-1,8.115668E-2,9.2873955E-1,-5.4859865E-1,-6.9958586E-1,3.081485E-1,2.882876E-1,-3.971844E-1,1.2501601E0,-4.0564185E-1,2.1406113E-1,-1.1837612E0,-6.774675E-2,-2.2298858E-2,6.759081E-2,-1.7173314E-2,2.8745439E-2,-2.599083E-2,-3.2372095E-2,8.609206E-2,8.260901E-2,1.9511173E-2,-8.427965E-2,4.974681E-2,-7.2518274E-2,5.4480992E-2,-8.406481E-2,-1.0464491E-2],"categories":[],"categories_nodes":[],"categories_segments":[],"categories_sizes":[],"default_left":[0,0,0,0,0,0,0,0,0,0,0,0,0,0,0,0,0,0,0,0,0,0,0,0,0,0,0,0,0,0,0],"id":27,"left_children":[1,3,5,7,9,11,13,15,17,19,21,23,25,27,29,-1,-1,-1,-1,-1,-1,-1,-1,-1,-1,-1,-1,-1,-1,-1,-1],"loss_changes":[1.3484265E2,1.18889854E2,7.930193E1,8.820381E1,1.1266945E2,9.187608E1,2.1621744E1,5.895941E1,5.371708E1,1.09414345E2,9.040673E1,1.9693848E1,5.3107094E1,2.172297E1,5.068516E0,0E0,0E0,0E0,0E0,0E0,0E0,0E0,0E0,0E0,0E0,0E0,0E0,0E0,0E0,0E0,0E0],"parents":[2147483647,0,0,1,1,2,2,3,3,4,4,5,5,6,6,7,7,8,8,9,9,10,10,11,11,12,12,13,13,14,14],"right_children":[2,4,6,8,10,12,14,16,18,20,22,24,26,28,30,-1,-1,-1,-1,-1,-1,-1,-1,-1,-1,-1,-1,-1,-1,-1,-1],"split_conditions":[1E0,2E0,1E0,1E0,4E0,1.6E1,2E0,5E0,1E0,1E0,1E0,1E0,1E0,1E0,2E0,-6.774675E-2,-2.2298858E-2,6.759081E-2,-1.7173314E-2,2.8745439E-2,-2.599083E-2,-3.2372095E-2,8.609206E-2,8.260901E-2,1.9511173E-2,-8.427965E-2,4.974681E-2,-7.2518274E-2,5.4480992E-2,-8.406481E-2,-1.0464491E-2],"split_indices":[28,33,56,24,54,52,32,31,26,64,22,43,62,37,31,0,0,0,0,0,0,0,0,0,0,0,0,0,0,0,0],"split_type":[0,0,0,0,0,0,0,0,0,0,0,0,0,0,0,0,0,0,0,0,0,0,0,0,0,0,0,0,0,0,0],"sum_hessian":[1.9194778E3,1.6643339E3,2.5514388E2,5.2932434E2,1.1350095E3,2.1203203E2,4.3111843E1,4.2055188E2,1.0877248E2,7.9231793E2,3.4269162E2,1.709237E2,4.1108322E1,1.9891035E1,2.3220808E1,1.8101682E2,2.3953508E2,4.5386414E1,6.338606E1,6.2686896E2,1.6544894E2,3.186389E2,2.405275E1,1.4990826E2,2.101545E1,2.2647238E1,1.8461084E1,6.278214E0,1.3612821E1,1.8787634E1,4.4331737E0],"tree_param":{"num_deleted":"0","num_feature":"67","num_nodes":"31","size_leaf_vector":"1"}},{"base_weights":[3.853346E-3,3.2225618E-1,-2.1663606E-1,5.72488E-1,4.8217576E-2,-2.713856E-1,7.895203E-2,3.0771062E-1,7.065929E-2,8.283351E-2,-3.7088845E-2,-1.3742355E0,-2.0692484E-1,5.07317E-3,7.397843E-2,-3.837352E-2,1.1189229E-2,3.7185296E-2,-9.395877E-2,2.2251215E-2,-2.3767386E-2],"categories":[],"categories_nodes":[],"categories_segments":[],"categories_sizes":[],"default_left":[0,0,0,0,0,0,0,0,0,0,0,0,0,0,0,0,0,0,0,0,0],"id":28,"left_children":[1,3,5,7,9,11,-1,13,-1,-1,15,17,19,-1,-1,-1,-1,-1,-1,-1,-1],"loss_changes":[1.331737E2,5.319438E1,9.43976E1,6.4628296E1,4.2279106E1,7.6705345E1,0E0,5.843332E1,0E0,0E0,4.7284237E1,2.3767937E1,1.1212384E2,0E0,0E0,0E0,0E0,0E0,0E0,0E0,0E0],"parents":[2147483647,0,0,1,1,2,2,3,3,4,4,5,5,7,7,10,10,11,11,12,12],"right_children":[2,4,6,8,10,12,-1,14,-1,-1,16,18,20,-1,-1,-1,-1,-1,-1,-1,-1],"split_conditions":[2E0,5E0,1E0,3E0,1E0,1E0,7.895203E-2,1E0,7.065929E-2,8.283351E-2,2E0,2E0,2E0,5.07317E-3,7.397843E-2,-3.837352E-2,1.1189229E-2,3.7185296E-2,-9.395877E-2,2.2251215E-2,-2.3767386E-2],"split_indices":[49,50,44,50,5,45,0,48,0,0,33,9,52,0,0,0,0,0,0,0,0],"split_type":[0,0,0,0,0,0,0,0,0,0,0,0,0,0,0,0,0,0,0,0,0],"sum_hessian":[1.8949467E3,7.7513434E2,1.1198123E3,4.045971E2,3.7053723E2,1.0819808E3,3.783147E1,2.8250275E2,1.22094345E2,2.138328E1,3.4915396E2,5.862668E1,1.0233541E3,2.2848697E2,5.4015785E1,9.3997765E1,2.551562E2,4.947221E0,5.367946E1,2.5220474E2,7.7114935E2],"tree_param":{"num_deleted":"0","num_feature":"67","num_nodes":"21","size_leaf_vector":"1"}},{"base_weights":[-3.5587675E-3,-1.01238474E-1,6.5143186E-1,-4.6745393E-1,6.693651E-2,8.8644737E-1,-5.4151064E-1,-6.650878E-1,2.9991722E-1,2.5319785E-1,-3.6725324E-1,1.2099899E0,-3.518725E-1,-1.4370024E0,6.652771E-2,-6.62054E-2,-2.0461695E-2,6.370264E-2,-1.7314479E-2,-1.089772E-2,5.3715542E-2,-4.2568572E-2,2.499297E-2,8.083379E-2,1.9611469E-2,7.722011E-2,-8.133977E-2,-9.677712E-2,2.7124776E-2,2.925671E-2,-8.5937515E-2],"categories":[],"categories_nodes":[],"categories_segments":[],"categories_sizes":[],"default_left":[0,0,0,0,0,0,0,0,0,0,0,0,0,0,0,0,0,0,0,0,0,0,0,0,0,0,0,0,0,0,0],"id":29,"left_children":[1,3,5,7,9,11,13,15,17,19,21,23,25,27,29,-1,-1,-1,-1,-1,-1,-1,-1,-1,-1,-1,-1,-1,-1,-1,-1],"loss_changes":[1.1969859E2,1.0030096E2,6.855173E1,7.792206E1,9.03939E1,8.184552E1,2.2191868E1,5.7555756E1,4.7668655E1,2.1847745E2,9.031769E1,1.9115173E1,7.22729E1,6.198765E0,1.6555973E1,0E0,0E0,0E0,0E0,0E0,0E0,0E0,0E0,0E0,0E0,0E0,0E0,0E0,0E0,0E0,0E0],"parents":[2147483647,0,0,1,1,2,2,3,3,4,4,5,5,6,6,7,7,8,8,9,9,10,10,11,11,12,12,13,13,14,14],"right_children":[2,4,6,8,10,12,14,16,18,20,22,24,26,28,30,-1,-1,-1,-1,-1,-1,-1,-1,-1,-1,-1,-1,-1,-1,-1,-1],"split_conditions":[1E0,2E0,1E0,1E0,4E0,1.6E1,2E0,5E0,1E0,1E0,8E0,1E0,1E0,2E0,2E0,-6.62054E-2,-2.0461695E-2,6.370264E-2,-1.7314479E-2,-1.089772E-2,5.3715542E-2,-4.2568572E-2,2.499297E-2,8.083379E-2,1.9611469E-2,7.722011E-2,-8.133977E-2,-9.677712E-2,2.7124776E-2,2.925671E-2,-8.5937515E-2],"split_indices":[28,33,56,24,54,52,51,31,26,65,35,43,65,31,50,0,0,0,0,0,0,0,0,0,0,0,0,0,0,0,0],"split_type":[0,0,0,0,0,0,0,0,0,0,0,0,0,0,0,0,0,0,0,0,0,0,0,0,0,0,0,0,0,0,0],"sum_hessian":[1.8688651E3,1.6270641E3,2.4180101E2,5.1148407E2,1.1155801E3,2.0221967E2,3.9581345E1,4.0683768E2,1.0464642E2,7.809712E2,3.346089E2,1.6034766E2,4.1872017E1,1.5455634E1,2.4125711E1,1.7190598E2,2.3493169E2,4.525736E1,5.938906E1,4.6605762E2,3.1491354E2,2.3298018E2,1.0162869E2,1.3832605E2,2.2021595E1,1.5797506E1,2.607451E1,1.4272465E1,1.1831701E0,1.9361021E1,4.7646904E0],"tree_param":{"num_deleted":"0","num_feature":"67","num_nodes":"31","size_leaf_vector":"1"}},{"base_weights":[-3.7331013E-3,-3.0439648E-1,1.9438769E-1,-5.69986E-2,-9.8953897E-1,5.054264E-1,-1.04259E-1,-3.2188195E-1,6.8532926E-1,-1.1518772E0,1.0031572E-1,1.3933425E-1,1.0206693E0,-1.1140058E0,2.6489884E-1,-3.468317E-2,2.6995484E-2,5.9240725E-2,-2.2854568E-2,-7.462127E-2,6.536431E-2,3.4997318E-2,-2.8779818E-2,8.063387E-2,-7.5510754E-3,-7.9323635E-2,7.445689E-2,5.1389076E-2,-5.2305207E-2],"categories":[],"categories_nodes":[],"categories_segments":[],"categories_sizes":[],"default_left":[0,0,0,0,0,0,0,0,0,0,0,0,0,0,0,0,0,0,0,0,0,0,0,0,0,0,0,0,0],"id":30,"left_children":[1,3,5,7,9,11,13,15,17,19,-1,21,23,25,27,-1,-1,-1,-1,-1,-1,-1,-1,-1,-1,-1,-1,-1,-1],"loss_changes":[1.105904E2,1.2494022E2,1.0400913E2,1.0696247E2,8.6425674E1,1.03293106E2,2.134241E2,7.949853E1,4.645204E1,3.9407364E1,0E0,8.869585E1,8.452321E1,7.673381E1,2.828308E2,0E0,0E0,0E0,0E0,0E0,0E0,0E0,0E0,0E0,0E0,0E0,0E0,0E0,0E0],"parents":[2147483647,0,0,1,1,2,2,3,3,4,4,5,5,6,6,7,7,8,8,9,9,11,11,12,12,13,13,14,14],"right_children":[2,4,6,8,10,12,14,16,18,20,-1,22,24,26,28,-1,-1,-1,-1,-1,-1,-1,-1,-1,-1,-1,-1,-1,-1],"split_conditions":[5E0,3E0,1E0,4E0,1E0,4E0,2E0,1E0,8E0,1E0,1.0031572E-1,9E0,1E0,8E0,4E0,-3.468317E-2,2.6995484E-2,5.9240725E-2,-2.2854568E-2,-7.462127E-2,6.536431E-2,3.4997318E-2,-2.8779818E-2,8.063387E-2,-7.5510754E-3,-7.9323635E-2,7.445689E-2,5.1389076E-2,-5.2305207E-2],"split_indices":[31,31,65,35,65,52,33,24,54,37,0,31,20,52,54,0,0,0,0,0,0,0,0,0,0,0,0,0,0],"split_type":[0,0,0,0,0,0,0,0,0,0,0,0,0,0,0,0,0,0,0,0,0,0,0,0,0,0,0,0,0],"sum_hessian":[1.8545576E3,7.36431E2,1.1181266E3,5.418557E2,1.945753E2,5.4736096E2,5.7076556E2,3.9977222E2,1.4208353E2,1.8392392E2,1.0651373E1,3.207389E2,2.2662209E2,1.5226414E2,4.185014E2,3.003379E2,9.943432E1,1.1077895E2,3.1304567E1,1.7711383E2,6.8101006E0,1.8681215E2,1.3392676E2,1.7664885E2,4.9973232E1,1.4030695E2,1.1957191E1,2.754081E2,1.430933E2],"tree_param":{"num_deleted":"0","num_feature":"67","num_nodes":"29","size_leaf_vector":"1"}},{"base_weights":[-1.2618138E-2,2.96283E-1,-2.266065E-1,5.4435134E-1,2.1965118E-2,-2.7967188E-1,7.686462E-2,7.6745754E-1,-3.4309006E-1,7.973777E-2,-5.4709245E-2,-5.82766E-1,-2.0669112E-2,5.0121292E-2,-5.0215553E-2,5.8728606E-3,-7.304372E-2,6.098178E-3,-3.772796E-2,2.0439234E-3,-5.4669213E-2,-1.7408047E-2,3.9183766E-2],"categories":[],"categories_nodes":[],"categories_segments":[],"categories_sizes":[],"default_left":[0,0,0,0,0,0,0,0,0,0,0,0,0,0,0,0,0,0,0,0,0,0,0],"id":31,"left_children":[1,3,5,7,9,11,-1,13,15,-1,17,19,21,-1,-1,-1,-1,-1,-1,-1,-1,-1,-1],"loss_changes":[1.2069737E2,5.0839577E1,8.665722E1,7.794985E1,3.5738888E1,8.18505E1,0E0,3.4888092E1,3.0776398E1,0E0,3.0324533E1,9.735425E1,1.0246205E2,0E0,0E0,0E0,0E0,0E0,0E0,0E0,0E0,0E0,0E0],"parents":[2147483647,0,0,1,1,2,2,3,3,4,4,5,5,7,7,8,8,10,10,11,11,12,12],"right_children":[2,4,6,8,10,12,-1,14,16,-1,18,20,22,-1,-1,-1,-1,-1,-1,-1,-1,-1,-1],"split_conditions":[2E0,5E0,1E0,1E0,1E0,1E0,7.686462E-2,1E0,8E0,7.973777E-2,1E0,5E0,4E0,5.0121292E-2,-5.0215553E-2,5.8728606E-3,-7.304372E-2,6.098178E-3,-3.772796E-2,2.0439234E-3,-5.4669213E-2,-1.7408047E-2,3.9183766E-2],"split_indices":[49,50,44,65,5,65,0,43,52,0,21,50,35,0,0,0,0,0,0,0,0,0,0],"split_type":[0,0,0,0,0,0,0,0,0,0,0,0,0,0,0,0,0,0,0,0,0,0,0],"sum_hessian":[1.8239309E3,7.4627185E2,1.077659E3,3.913688E2,3.54903E2,1.0418055E3,3.5853527E1,3.1285184E2,7.851697E1,1.8761436E1,3.3614157E2,4.794667E2,5.6233887E2,3.006094E2,1.2242432E1,5.2782993E1,2.5733974E1,2.648392E2,7.130236E1,1.6688747E2,3.1257922E2,4.0208914E2,1.6024976E2],"tree_param":{"num_deleted":"0","num_feature":"67","num_nodes":"23","size_leaf_vector":"1"}},{"base_weights":[-1.8446759E-3,9.193653E-2,-6.6921824E-1,-5.3724437E-3,8.2903045E-1,-8.897115E-1,3.108841E-1,3.2532787E-1,-2.1002725E-1,1.1484021E0,-3.4218183E-1,-1.1494119E0,2.1983667E-1,-1.0297923E0,1.345506E0,-2.117509E-4,7.164101E-2,-2.9717581E-3,-3.7190918E-2,7.7990554E-2,1.5061022E-2,4.525537E-2,-7.3775E-2,-7.714825E-2,-2.9029286E-2,6.673727E-2,-2.6478289E-2,-8.204842E-2,-1.1879987E-2,9.1998674E-2,-4.5611247E-2],"categories":[],"categories_nodes":[],"categories_segments":[],"categories_sizes":[],"default_left":[0,0,0,0,0,0,0,0,0,0,0,0,0,0,0,0,0,0,0,0,0,0,0,0,0,0,0,0,0,0,0],"id":32,"left_children":[1,3,5,7,9,11,13,15,17,19,21,23,25,27,29,-1,-1,-1,-1,-1,-1,-1,-1,-1,-1,-1,-1,-1,-1,-1,-1],"loss_changes":[1.12714676E2,1.13263306E2,4.822837E1,9.454167E1,6.927735E1,5.25226E1,5.8938698E1,1.5255814E2,5.6725777E1,1.9369675E1,4.0068363E1,1.273671E1,2.1286451E1,4.9646683E0,1.0598358E1,0E0,0E0,0E0,0E0,0E0,0E0,0E0,0E0,0E0,0E0,0E0,0E0,0E0,0E0,0E0,0E0],"parents":[2147483647,0,0,1,1,2,2,3,3,4,4,5,5,6,6,7,7,8,8,9,9,10,10,11,11,12,12,13,13,14,14],"right_children":[2,4,6,8,10,12,14,16,18,20,22,24,26,28,30,-1,-1,-1,-1,-1,-1,-1,-1,-1,-1,-1,-1,-1,-1,-1,-1],"split_conditions":[1E0,1E0,1.6E1,5E0,1.6E1,1E0,1E0,3E0,1E0,1E0,1E0,1E0,2E0,1E0,1E0,-2.117509E-4,7.164101E-2,-2.9717581E-3,-3.7190918E-2,7.7990554E-2,1.5061022E-2,4.525537E-2,-7.3775E-2,-7.714825E-2,-2.9029286E-2,6.673727E-2,-2.6478289E-2,-8.204842E-2,-1.1879987E-2,9.1998674E-2,-4.5611247E-2],"split_indices":[47,28,33,50,52,37,16,50,66,43,16,24,32,21,66,0,0,0,0,0,0,0,0,0,0,0,0,0,0,0,0],"split_type":[0,0,0,0,0,0,0,0,0,0,0,0,0,0,0,0,0,0,0,0,0,0,0,0,0,0,0,0,0,0,0],"sum_hessian":[1.7989421E3,1.578052E3,2.2089008E2,1.3948949E3,1.8315721E2,1.8039818E2,4.0491886E1,5.33013E2,8.6188184E2,1.4392935E2,3.922786E1,1.461536E2,3.424459E1,1.763931E1,2.2852577E1,3.8736523E2,1.4564778E2,6.201385E2,2.4174333E2,1.227636E2,2.1165749E1,1.7614332E1,2.1613527E1,1.2052406E2,2.5629528E1,1.428262E1,1.9961971E1,1.2087968E1,5.5513415E0,2.1230839E1,1.6217376E0],"tree_param":{"num_deleted":"0","num_feature":"67","num_nodes":"31","size_leaf_vector":"1"}},{"base_weights":[4.8256535E-3,2.8969416E-1,-1.9282424E-1,-1.9930052E-2,4.940789E-1,-2.4215704E-1,7.53518E-2,5.347816E-2,-7.7686146E-2,8.2433075E-1,-3.0457933E-2,-5.6027603E-1,1.9445274E-2,1.880448E-2,-1.3424664E-2,5.3777043E-2,-7.3873706E-2,-6.969687E-2,1.8377764E-2,-5.8209075E-4,-5.146195E-2,1.6119642E-2,-3.5238367E-2],"categories":[],"categories_nodes":[],"categories_segments":[],"categories_sizes":[],"default_left":[0,0,0,0,0,0,0,0,0,0,0,0,0,0,0,0,0,0,0,0,0,0,0],"id":33,"left_children":[1,3,5,7,9,11,-1,13,-1,15,17,19,21,-1,-1,-1,-1,-1,-1,-1,-1,-1,-1],"loss_changes":[1.01186386E2,4.6594532E1,7.613185E1,2.7552065E1,7.684668E1,8.5470436E1,0E0,2.0148619E1,0E0,4.1358215E1,6.598869E1,7.587982E1,8.551289E1,0E0,0E0,0E0,0E0,0E0,0E0,0E0,0E0,0E0,0E0],"parents":[2147483647,0,0,1,1,2,2,3,3,4,4,5,5,7,7,9,9,10,10,11,11,12,12],"right_children":[2,4,6,8,10,12,-1,14,-1,16,18,20,22,-1,-1,-1,-1,-1,-1,-1,-1,-1,-1],"split_conditions":[2E0,2E0,1E0,1E0,1E0,1E0,7.53518E-2,5E0,-7.7686146E-2,1E0,2E0,5E0,4E0,1.880448E-2,-1.3424664E-2,5.3777043E-2,-7.3873706E-2,-6.969687E-2,1.8377764E-2,-5.8209075E-4,-5.146195E-2,1.6119642E-2,-3.5238367E-2],"split_indices":[49,30,44,29,65,65,0,50,0,25,33,50,54,0,0,0,0,0,0,0,0,0,0],"split_type":[0,0,0,0,0,0,0,0,0,0,0,0,0,0,0,0,0,0,0,0,0,0,0],"sum_hessian":[1.7951443E3,7.3513885E2,1.0600054E3,2.9267117E2,4.4246765E2,1.0259027E3,3.4102676E1,2.7764197E2,1.5029221E1,2.7116736E2,1.713003E2,4.6242883E2,5.634739E2,1.4322273E2,1.3441924E2,2.625413E2,8.626087E0,3.8736145E1,1.3256415E2,1.6255254E2,2.998763E2,3.9981302E2,1.6366089E2],"tree_param":{"num_deleted":"0","num_feature":"67","num_nodes":"23","size_leaf_vector":"1"}},{"base_weights":[4.637881E-3,9.2900336E-2,-6.28264E-1,-4.858307E-6,8.2315713E-1,-3.9625666E-1,-1.2141116E0,-3.1090966E-1,1.8769683E-1,1.1213082E0,-2.4782962E-1,-8.8255584E-1,5.3687267E-2,-7.63095E-2,-6.991541E-1,-1.3724626E-3,-6.971981E-2,3.400813E-2,-8.061113E-4,7.636685E-2,1.9016588E-2,7.4733935E-2,-7.08303E-2,-6.007611E-2,1.2502331E-2,-5.9925877E-2,2.6914295E-2,-5.7232317E-2,8.384933E-3],"categories":[],"categories_nodes":[],"categories_segments":[],"categories_sizes":[],"default_left":[0,0,0,0,0,0,0,0,0,0,0,0,0,0,0,0,0,0,0,0,0,0,0,0,0,0,0,0,0],"id":34,"left_children":[1,3,5,7,9,11,13,15,17,19,21,23,25,-1,27,-1,-1,-1,-1,-1,-1,-1,-1,-1,-1,-1,-1,-1,-1],"loss_changes":[9.822183E1,1.0468887E2,2.8768875E1,8.000273E1,5.588881E1,3.410167E1,9.107208E-1,1.26487595E2,6.518843E1,1.621698E1,5.5435474E1,9.902691E0,3.4436516E1,0E0,1.9120755E0,0E0,0E0,0E0,0E0,0E0,0E0,0E0,0E0,0E0,0E0,0E0,0E0,0E0,0E0],"parents":[2147483647,0,0,1,1,2,2,3,3,4,4,5,5,6,6,7,7,8,8,9,9,10,10,11,11,12,12,14,14],"right_children":[2,4,6,8,10,12,14,16,18,20,22,24,26,-1,28,-1,-1,-1,-1,-1,-1,-1,-1,-1,-1,-1,-1,-1,-1],"split_conditions":[1E0,1E0,4.8598123E0,5E0,1.6E1,2E0,1E0,3E0,5E0,1E0,1E0,1.6E1,1E0,-7.63095E-2,4E0,-1.3724626E-3,-6.971981E-2,3.400813E-2,-8.061113E-4,7.636685E-2,1.9016588E-2,7.4733935E-2,-7.08303E-2,-6.007611E-2,1.2502331E-2,-5.9925877E-2,2.6914295E-2,-5.7232317E-2,8.384933E-3],"split_indices":[47,28,1,31,52,53,21,31,50,43,65,35,65,0,35,0,0,0,0,0,0,0,0,0,0,0,0,0,0],"split_type":[0,0,0,0,0,0,0,0,0,0,0,0,0,0,0,0,0,0,0,0,0,0,0,0,0,0,0,0,0],"sum_hessian":[1.7562659E3,1.5420673E3,2.1419852E2,1.3689109E3,1.7315645E2,1.5463596E2,5.9562557E1,5.150829E2,8.5382794E2,1.3541219E2,3.774427E1,7.385358E1,8.078239E1,5.2238228E1,7.3243294E0,3.856077E2,1.2947517E2,2.9533856E2,5.584894E2,1.1346321E2,2.1948973E1,1.4381388E1,2.3362883E1,6.66798E1,7.1737776E0,2.1623045E1,5.915934E1,5.5132747E0,1.8110545E0],"tree_param":{"num_deleted":"0","num_feature":"67","num_nodes":"29","size_leaf_vector":"1"}},{"base_weights":[2.2801239E-4,-8.172558E-2,5.807582E-1,-4.1578555E-1,6.864719E-2,8.2816434E-1,-4.9157715E-1,-6.1347E-1,3.0540487E-1,2.4270307E-1,-3.3040994E-1,1.1236233E0,-3.2510978E-1,-1.3625937E0,6.851831E-2,-5.2873094E-2,-5.556261E-3,5.2895445E-2,-2.1678843E-2,-9.890954E-3,4.9305715E-2,-2.7868934E-2,8.437914E-2,7.6394156E-2,1.5517505E-2,7.222102E-2,-7.081591E-2,-9.25958E-2,2.1079145E-3,5.417774E-2,-4.0725313E-2],"categories":[],"categories_nodes":[],"categories_segments":[],"categories_sizes":[],"default_left":[0,0,0,0,0,0,0,0,0,0,0,0,0,0,0,0,0,0,0,0,0,0,0,0,0,0,0,0,0,0,0],"id":35,"left_children":[1,3,5,7,9,11,13,15,17,19,21,23,25,27,29,-1,-1,-1,-1,-1,-1,-1,-1,-1,-1,-1,-1,-1,-1,-1,-1],"loss_changes":[8.316605E1,7.697652E1,5.7777397E1,6.799696E1,7.3509766E1,6.0363327E1,2.01763E1,5.2025986E1,3.9883846E1,1.7399083E2,7.5511375E1,1.783966E1,4.9381866E1,4.1348095E0,1.6829733E1,0E0,0E0,0E0,0E0,0E0,0E0,0E0,0E0,0E0,0E0,0E0,0E0,0E0,0E0,0E0,0E0],"parents":[2147483647,0,0,1,1,2,2,3,3,4,4,5,5,6,6,7,7,8,8,9,9,10,10,11,11,12,12,13,13,14,14],"right_children":[2,4,6,8,10,12,14,16,18,20,22,24,26,28,30,-1,-1,-1,-1,-1,-1,-1,-1,-1,-1,-1,-1,-1,-1,-1,-1],"split_conditions":[1E0,2E0,1E0,1E0,4E0,1.6E1,2E0,4E0,2E0,1E0,1E0,1E0,1E0,2E0,2E0,-5.2873094E-2,-5.556261E-3,5.2895445E-2,-2.1678843E-2,-9.890954E-3,4.9305715E-2,-2.7868934E-2,8.437914E-2,7.6394156E-2,1.5517505E-2,7.222102E-2,-7.081591E-2,-9.25958E-2,2.1079145E-3,5.417774E-2,-4.0725313E-2],"split_indices":[28,33,56,24,54,52,51,52,32,65,22,43,65,31,32,0,0,0,0,0,0,0,0,0,0,0,0,0,0,0,0],"split_type":[0,0,0,0,0,0,0,0,0,0,0,0,0,0,0,0,0,0,0,0,0,0,0,0,0,0,0,0,0,0,0],"sum_hessian":[1.7460502E3,1.5308052E3,2.1524493E2,4.746294E2,1.0561758E3,1.7507893E2,4.0166004E1,3.7263602E2,1.01993355E2,7.3568536E2,3.2049045E2,1.3939328E2,3.5685654E1,1.515905E1,2.5006956E1,2.4566263E2,1.26973404E2,5.453839E1,4.7454967E1,4.322061E2,3.0347928E2,2.9820233E2,2.2288122E1,1.1843625E2,2.095703E1,1.2654739E1,2.3030912E1,1.3331676E1,1.827375E0,1.1715964E1,1.3290991E1],"tree_param":{"num_deleted":"0","num_feature":"67","num_nodes":"31","size_leaf_vector":"1"}},{"base_weights":[1.8640903E-3,7.89682E-2,-5.664101E-1,6.4313243E-4,7.426616E-1,-7.917293E-1,4.307657E-1,3.0654526E-1,-1.8947388E-1,1.0522571E0,-2.926743E-1,-1.0804266E0,3.3857766E-1,-8.1919277E-1,1.3267604E0,-4.1811218E-4,7.094963E-2,-2.719507E-2,4.7187316E-3,7.417477E-2,9.583363E-3,7.215757E-2,-6.555759E-2,-7.4857086E-2,-2.2200732E-2,6.9241695E-2,-1.0815605E-2,-7.19497E-2,-1.8690418E-3,-4.9091425E-2,9.4681576E-2],"categories":[],"categories_nodes":[],"categories_segments":[],"categories_sizes":[],"default_left":[0,0,0,0,0,0,0,0,0,0,0,0,0,0,0,0,0,0,0,0,0,0,0,0,0,0,0,0,0,0,0],"id":36,"left_children":[1,3,5,7,9,11,13,15,17,19,21,23,25,27,29,-1,-1,-1,-1,-1,-1,-1,-1,-1,-1,-1,-1,-1,-1,-1,-1],"loss_changes":[7.584205E1,7.9227844E1,4.680417E1,7.9397156E1,5.1874947E1,5.552382E1,4.4498707E1,1.4370888E2,5.9581608E1,2.0175613E1,4.6547764E1,1.5558899E1,1.5079985E1,4.993844E0,1.366526E1,0E0,0E0,0E0,0E0,0E0,0E0,0E0,0E0,0E0,0E0,0E0,0E0,0E0,0E0,0E0,0E0],"parents":[2147483647,0,0,1,1,2,2,3,3,4,4,5,5,6,6,7,7,8,8,9,9,10,10,11,11,12,12,13,13,14,14],"right_children":[2,4,6,8,10,12,14,16,18,20,22,24,26,28,30,-1,-1,-1,-1,-1,-1,-1,-1,-1,-1,-1,-1,-1,-1,-1,-1],"split_conditions":[1E0,1E0,1.6E1,5E0,1.6E1,1E0,1E0,3E0,1E0,1E0,1E0,1E0,1E0,1E0,1E0,-4.1811218E-4,7.094963E-2,-2.719507E-2,4.7187316E-3,7.417477E-2,9.583363E-3,7.215757E-2,-6.555759E-2,-7.4857086E-2,-2.2200732E-2,6.9241695E-2,-1.0815605E-2,-7.19497E-2,-1.8690418E-3,-4.9091425E-2,9.4681576E-2],"split_indices":[47,28,33,50,52,37,16,50,65,43,65,24,26,21,65,0,0,0,0,0,0,0,0,0,0,0,0,0,0,0,0],"split_type":[0,0,0,0,0,0,0,0,0,0,0,0,0,0,0,0,0,0,0,0,0,0,0,0,0,0,0,0,0,0,0],"sum_hessian":[1.7288898E3,1.5230955E3,2.0579433E2,1.3632177E3,1.598777E2,1.6803224E2,3.7762085E1,5.22267E2,8.409507E2,1.2306219E2,3.6815506E1,1.3388113E2,3.4151108E1,1.5802503E1,2.1959581E1,3.8534055E2,1.3692651E2,4.2355978E2,4.1739087E2,1.0171029E2,2.1351902E1,1.2655676E1,2.4159832E1,1.0776349E2,2.6117641E1,1.2803599E1,2.134751E1,1.0309764E1,5.4927387E0,2.0660768E0,1.9893503E1],"tree_param":{"num_deleted":"0","num_feature":"67","num_nodes":"31","size_leaf_vector":"1"}},{"base_weights":[-1.1801473E-3,2.573775E-1,-1.7799264E-1,1.9235978E-1,7.031973E-2,-1.1640555E0,-1.1818529E-1,-1.2315606E-1,3.867539E-1,7.6424825E-1,-9.0891674E-2,3.7987256E-1,-2.8263265E-1,-1.3973061E-2,6.14462E-2,4.3504685E-2,-4.8879753E-3,-3.3941865E-2,7.0190325E-2,-1.5347649E-2,6.2157296E-2,-3.191037E-2,1.3626448E-2],"categories":[],"categories_nodes":[],"categories_segments":[],"categories_sizes":[],"default_left":[0,0,0,0,0,0,0,0,0,0,0,0,0,0,0,0,0,0,0,0,0,0,0],"id":37,"left_children":[1,3,5,7,-1,9,11,13,15,17,-1,19,21,-1,-1,-1,-1,-1,-1,-1,-1,-1,-1],"loss_changes":[7.772147E1,4.0832542E1,5.94049E1,3.9658176E1,0E0,4.013719E1,7.816379E1,3.1327888E1,6.3399326E1,5.8045926E0,0E0,9.909979E1,9.120618E1,0E0,0E0,0E0,0E0,0E0,0E0,0E0,0E0,0E0,0E0],"parents":[2147483647,0,0,1,1,2,2,3,3,5,5,6,6,7,7,8,8,9,9,11,11,12,12],"right_children":[2,4,6,8,-1,10,12,14,16,18,-1,20,22,-1,-1,-1,-1,-1,-1,-1,-1,-1,-1],"split_conditions":[2E0,1E0,1E0,5E0,7.031973E-2,2E0,2E0,1.6E1,1E0,2E0,-9.0891674E-2,1E0,4E0,-1.3973061E-2,6.14462E-2,4.3504685E-2,-4.8879753E-3,-3.3941865E-2,7.0190325E-2,-1.5347649E-2,6.2157296E-2,-3.191037E-2,1.3626448E-2],"split_indices":[49,48,45,31,0,9,52,40,65,30,0,65,35,0,0,0,0,0,0,0,0,0,0],"split_type":[0,0,0,0,0,0,0,0,0,0,0,0,0,0,0,0,0,0,0,0,0,0,0],"sum_hessian":[1.6980829E3,6.8944025E2,1.00864264E3,6.448126E2,4.4627666E1,5.662271E1,9.520199E2,2.4596306E2,3.9884955E2,8.534091E0,4.808862E1,2.3598567E2,7.1603424E2,2.2521924E2,2.074382E1,2.3122415E2,1.676254E2,1.9021432E0,6.631948E0,1.2016756E2,1.15818115E2,4.80889E2,2.3514522E2],"tree_param":{"num_deleted":"0","num_feature":"67","num_nodes":"23","size_leaf_vector":"1"}},{"base_weights":[3.932613E-3,2.6585653E-1,-1.7499231E-1,2.0492585E-1,6.97313E-2,-2.2405559E-1,7.489822E-2,-8.996759E-2,3.882877E-1,-1.251531E0,-1.6237609E-1,4.4373726E-3,-5.743585E-2,2.9572684E-2,-4.06314E-2,3.600387E-2,-8.769007E-2,1.7788738E-2,-1.8830406E-2],"categories":[],"categories_nodes":[],"categories_segments":[],"categories_sizes":[],"default_left":[0,0,0,0,0,0,0,0,0,0,0,0,0,0,0,0,0,0,0],"id":38,"left_children":[1,3,5,7,-1,9,-1,11,13,15,17,-1,-1,-1,-1,-1,-1,-1,-1],"loss_changes":[7.820014E1,3.674839E1,6.9511314E1,3.438925E1,0E0,6.058655E1,0E0,3.4817307E1,4.401123E1,2.1938034E1,6.3063408E1,0E0,0E0,0E0,0E0,0E0,0E0,0E0,0E0],"parents":[2147483647,0,0,1,1,2,2,3,3,5,5,7,7,8,8,9,9,10,10],"right_children":[2,4,6,8,-1,10,-1,12,14,16,18,-1,-1,-1,-1,-1,-1,-1,-1],"split_conditions":[2E0,1E0,1E0,5E0,6.97313E-2,1E0,7.489822E-2,6E0,1.6E1,2E0,2E0,4.4373726E-3,-5.743585E-2,2.9572684E-2,-4.06314E-2,3.600387E-2,-8.769007E-2,1.7788738E-2,-1.8830406E-2],"split_indices":[49,48,44,31,0,45,0,50,33,9,52,0,0,0,0,0,0,0,0],"split_type":[0,0,0,0,0,0,0,0,0,0,0,0,0,0,0,0,0,0,0],"sum_hessian":[1.666643E3,6.7623413E2,9.904088E2,6.3434155E2,4.1892532E1,9.5822003E2,3.2188793E1,2.434002E2,3.9094138E2,5.3172123E1,9.050479E2,2.054784E2,3.7921814E1,3.5648517E2,3.445621E1,5.226354E0,4.794577E1,2.243698E2,6.806781E2],"tree_param":{"num_deleted":"0","num_feature":"67","num_nodes":"19","size_leaf_vector":"1"}},{"base_weights":[-1.2770009E-3,-7.5928845E-2,5.5047834E-1,-4.0197587E-1,6.7638E-2,7.7688825E-1,-3.9878175E-1,-5.9283566E-1,2.7780706E-1,2.3737273E-1,-3.1559187E-1,1.0839288E0,-3.2033414E-1,-1.1815158E0,9.846028E-2,-6.129049E-2,-1.8157694E-2,-3.1227407E-3,8.090084E-2,-9.206059E-3,4.734727E-2,-4.0240813E-2,2.7650164E-2,7.39653E-2,1.9426234E-2,7.076132E-2,-6.293193E-2,-8.706628E-2,2.4470814E-2,2.9984694E-2,-8.006284E-2],"categories":[],"categories_nodes":[],"categories_segments":[],"categories_sizes":[],"default_left":[0,0,0,0,0,0,0,0,0,0,0,0,0,0,0,0,0,0,0,0,0,0,0,0,0,0,0,0,0,0,0],"id":39,"left_children":[1,3,5,7,9,11,13,15,17,19,21,23,25,27,29,-1,-1,-1,-1,-1,-1,-1,-1,-1,-1,-1,-1,-1,-1,-1,-1],"loss_changes":[6.828308E1,6.837833E1,4.2770893E1,5.81008E1,6.6075424E1,5.4201843E1,1.518173E1,4.3104523E1,3.487767E1,1.5187332E2,8.629479E1,1.37573395E1,4.026856E1,7.067808E0,1.4807702E1,0E0,0E0,0E0,0E0,0E0,0E0,0E0,0E0,0E0,0E0,0E0,0E0,0E0,0E0,0E0,0E0],"parents":[2147483647,0,0,1,1,2,2,3,3,4,4,5,5,6,6,7,7,8,8,9,9,10,10,11,11,12,12,13,13,14,14],"right_children":[2,4,6,8,10,12,14,16,18,20,22,24,26,28,30,-1,-1,-1,-1,-1,-1,-1,-1,-1,-1,-1,-1,-1,-1,-1,-1],"split_conditions":[1E0,2E0,1E0,1E0,4E0,1.6E1,2E0,5E0,1E0,1E0,8E0,1E0,1E0,2E0,2E0,-6.129049E-2,-1.8157694E-2,-3.1227407E-3,8.090084E-2,-9.206059E-3,4.734727E-2,-4.0240813E-2,2.7650164E-2,7.39653E-2,1.9426234E-2,7.076132E-2,-6.293193E-2,-8.706628E-2,2.4470814E-2,2.9984694E-2,-8.006284E-2],"split_indices":[28,33,56,24,54,52,51,31,40,65,35,43,65,31,50,0,0,0,0,0,0,0,0,0,0,0,0,0,0,0,0],"split_type":[0,0,0,0,0,0,0,0,0,0,0,0,0,0,0,0,0,0,0,0,0,0,0,0,0,0,0,0,0,0,0],"sum_hessian":[1.6557618E3,1.4591967E3,1.9656519E2,4.4554443E2,1.0136522E3,1.5885738E2,3.7707806E1,3.4797336E2,9.75711E1,7.0277136E2,3.108809E2,1.24132866E2,3.472452E1,1.4114039E1,2.359377E1,1.3945743E2,2.0851593E2,7.531621E1,2.2254892E1,4.118074E2,2.9096396E2,2.1341483E2,9.746605E1,1.0328891E2,2.0843954E1,1.1151085E1,2.3573435E1,1.2141567E1,1.9724716E0,1.8940477E1,4.6532917E0],"tree_param":{"num_deleted":"0","num_feature":"67","num_nodes":"31","size_leaf_vector":"1"}},{"base_weights":[-9.816681E-3,1.1518376E0,-4.357393E-2,1.20959E0,-4.430185E-2,-3.5956028E-1,9.275621E-2,8.5405454E-2,8.4436035E-1,-6.158376E-1,1.2786196E-1,2.614466E-1,-2.7584252E-1,5.877294E-2,-4.0011615E-2,4.6466165E-3,-5.353607E-2,-2.0391498E-2,9.677749E-2,-6.5850993E-3,4.3547835E-2,-3.6021154E-2,2.3840144E-2],"categories":[],"categories_nodes":[],"categories_segments":[],"categories_sizes":[],"default_left":[0,0,0,0,0,0,0,0,0,0,0,0,0,0,0,0,0,0,0,0,0,0,0],"id":40,"left_children":[1,3,5,7,-1,9,11,-1,13,15,17,19,21,-1,-1,-1,-1,-1,-1,-1,-1,-1,-1],"loss_changes":[6.4681114E1,5.977806E0,6.9069626E1,2.3575897E0,0E0,6.0441116E1,6.973404E1,0E0,4.5938663E0,6.0797173E1,1.16788994E2,1.326478E2,7.718562E1,0E0,0E0,0E0,0E0,0E0,0E0,0E0,0E0,0E0,0E0],"parents":[2147483647,0,0,1,1,2,2,3,3,5,5,6,6,8,8,9,9,10,10,11,11,12,12],"right_children":[2,4,6,8,-1,10,12,-1,14,16,18,20,22,-1,-1,-1,-1,-1,-1,-1,-1,-1,-1],"split_conditions":[6.25E-2,1E0,2E0,1E0,-4.430185E-2,4E0,4E0,8.5405454E-2,1E0,2E0,1E0,1E0,8E0,5.877294E-2,-4.0011615E-2,4.6466165E-3,-5.353607E-2,-2.0391498E-2,9.677749E-2,-6.5850993E-3,4.3547835E-2,-3.6021154E-2,2.3840144E-2],"split_indices":[54,58,33,64,0,52,54,0,47,32,22,65,35,0,0,0,0,0,0,0,0,0,0],"split_type":[0,0,0,0,0,0,0,0,0,0,0,0,0,0,0,0,0,0,0,0,0,0,0],"sum_hessian":[1.6471489E3,4.5578564E1,1.6015704E3,4.457666E1,1.0019022E0,4.8222668E2,1.1193438E3,2.6288158E1,1.8288502E1,3.1587973E2,1.6634698E2,7.6810754E2,3.5123615E2,1.7109737E1,1.1787639E0,9.025127E1,2.2562845E2,1.2709157E2,3.925541E1,4.27295E2,3.4081256E2,2.3706538E2,1.1417076E2],"tree_param":{"num_deleted":"0","num_feature":"67","num_nodes":"23","size_leaf_vector":"1"}},{"base_weights":[-7.2719897E-3,2.4107942E-1,-1.8003295E-1,4.1737756E-1,-7.763563E-2,-2.2646756E-1,7.3425554E-2,-1.71853E-2,7.493949E-1,-1.0916373E0,2.0603551E-1,-1.2385617E0,-1.6627932E-1,1.968908E-2,-4.0767614E-2,5.2872796E-2,-1.965264E-2,-7.393361E-2,2.6672214E-2,4.6747167E-2,-4.564919E-2,3.0733148E-2,-8.678672E-2,1.7559577E-2,-1.8807909E-2],"categories":[],"categories_nodes":[],"categories_segments":[],"categories_sizes":[],"default_left":[0,0,0,0,0,0,0,0,0,0,0,0,0,0,0,0,0,0,0,0,0,0,0,0,0],"id":41,"left_children":[1,3,5,7,9,11,-1,13,15,17,19,21,23,-1,-1,-1,-1,-1,-1,-1,-1,-1,-1,-1,-1],"loss_changes":[7.011863E1,3.7705143E1,6.310086E1,6.231945E1,6.915241E1,5.667558E1,0E0,4.3222984E1,3.5044052E1,1.1895172E1,1.04809784E2,1.9760704E1,5.970459E1,0E0,0E0,0E0,0E0,0E0,0E0,0E0,0E0,0E0,0E0,0E0,0E0],"parents":[2147483647,0,0,1,1,2,2,3,3,4,4,5,5,7,7,8,8,9,9,10,10,11,11,12,12],"right_children":[2,4,6,8,10,12,-1,14,16,18,20,22,24,-1,-1,-1,-1,-1,-1,-1,-1,-1,-1,-1,-1],"split_conditions":[2E0,1E0,1E0,5E0,2E0,1E0,7.3425554E-2,4E0,1.6E1,8E0,4E0,2E0,2E0,1.968908E-2,-4.0767614E-2,5.2872796E-2,-1.965264E-2,-7.393361E-2,2.6672214E-2,4.6747167E-2,-4.564919E-2,3.0733148E-2,-8.678672E-2,1.7559577E-2,-1.8807909E-2],"split_indices":[49,65,44,31,33,45,0,50,33,52,54,9,52,0,0,0,0,0,0,0,0,0,0,0,0],"split_type":[0,0,0,0,0,0,0,0,0,0,0,0,0,0,0,0,0,0,0,0,0,0,0,0,0],"sum_hessian":[1.6322487E3,6.6946625E2,9.6278235E2,4.3083765E2,2.3862863E2,9.3276697E2,3.0015371E1,1.8701291E2,2.4382474E2,5.154157E1,1.8708707E2,5.125818E1,8.815088E2,1.2324996E2,6.3762955E1,2.1739687E2,2.642786E1,4.7401295E1,4.140271E0,1.1758507E2,6.9502E1,5.284927E0,4.5973255E1,2.1381758E2,6.676912E2],"tree_param":{"num_deleted":"0","num_feature":"67","num_nodes":"25","size_leaf_vector":"1"}},{"base_weights":[1.7234763E-3,7.385044E-2,-5.440033E-1,3.8712905E-3,7.041992E-1,-7.5199056E-1,3.1948256E-1,2.8686127E-1,-1.7088039E-1,9.990015E-1,-2.6012588E-1,-1.0269698E0,2.747878E-1,-8.3315176E-1,1.2948227E0,-1.4138245E-3,6.925093E-2,-1.550848E-2,3.9508298E-2,7.4936904E-2,1.846712E-2,7.031388E-2,-6.369133E-2,-7.28073E-2,-2.0660352E-2,6.206418E-2,-1.27920285E-2,-6.905903E-2,-1.094956E-2,-4.3480545E-2,9.017928E-2],"categories":[],"categories_nodes":[],"categories_segments":[],"categories_sizes":[],"default_left":[0,0,0,0,0,0,0,0,0,0,0,0,0,0,0,0,0,0,0,0,0,0,0,0,0,0,0,0,0,0,0],"id":42,"left_children":[1,3,5,7,9,11,13,15,17,19,21,23,25,27,29,-1,-1,-1,-1,-1,-1,-1,-1,-1,-1,-1,-1,-1,-1,-1,-1],"loss_changes":[6.330774E1,6.266106E1,3.396034E1,6.3331043E1,4.0612495E1,4.308796E1,4.284098E1,1.3165785E2,5.768731E1,1.8432884E1,4.029413E1,1.4832108E1,1.2384277E1,3.4368734E0,9.712654E0,0E0,0E0,0E0,0E0,0E0,0E0,0E0,0E0,0E0,0E0,0E0,0E0,0E0,0E0,0E0,0E0],"parents":[2147483647,0,0,1,1,2,2,3,3,4,4,5,5,6,6,7,7,8,8,9,9,10,10,11,11,12,12,13,13,14,14],"right_children":[2,4,6,8,10,12,14,16,18,20,22,24,26,28,30,-1,-1,-1,-1,-1,-1,-1,-1,-1,-1,-1,-1,-1,-1,-1,-1],"split_conditions":[1E0,1E0,1.6E1,5E0,1.6E1,1E0,1E0,3E0,1.6E1,1E0,1E0,1E0,1E0,6E0,1E0,-1.4138245E-3,6.925093E-2,-1.550848E-2,3.9508298E-2,7.4936904E-2,1.846712E-2,7.031388E-2,-6.369133E-2,-7.28073E-2,-2.0660352E-2,6.206418E-2,-1.27920285E-2,-6.905903E-2,-1.094956E-2,-4.3480545E-2,9.017928E-2],"split_indices":[47,28,33,50,52,37,16,50,52,17,65,27,26,31,65,0,0,0,0,0,0,0,0,0,0,0,0,0,0,0,0],"split_type":[0,0,0,0,0,0,0,0,0,0,0,0,0,0,0,0,0,0,0,0,0,0,0,0,0,0,0,0,0,0,0],"sum_hessian":[1.6063418E3,1.4195846E3,1.8675728E2,1.2786404E3,1.4094412E2,1.5060925E2,3.6148026E1,4.8790067E2,7.907398E2,1.07917015E2,3.30271E1,1.18794876E2,3.1814379E1,1.663498E1,1.9513048E1,3.6001837E2,1.2788227E2,7.158244E2,7.4915405E1,7.8664635E1,2.9252378E1,1.1684901E1,2.1342197E1,9.269443E1,2.6100452E1,1.2005921E1,1.9808456E1,1.0659236E1,5.975743E0,1.5915464E0,1.7921501E1],"tree_param":{"num_deleted":"0","num_feature":"67","num_nodes":"31","size_leaf_vector":"1"}},{"base_weights":[-2.0560164E-3,-7.2057895E-2,5.364373E-1,-1.00948624E-1,7.36496E-2,2.828519E-1,1.1885107E0,-1.4535995E-1,8.0871034E-1,5.091441E-1,-5.968749E-1,7.4302785E-2,7.7311283E-1,8.760647E-3,-1.6132372E-2,-5.889911E-2,5.7920404E-2,-1.9947453E-3,6.753437E-2,2.309972E-2,-7.343651E-2,2.0262875E-2,7.099662E-2],"categories":[],"categories_nodes":[],"categories_segments":[],"categories_sizes":[],"default_left":[0,0,0,0,0,0,0,0,0,0,0,0,0,0,0,0,0,0,0,0,0,0,0],"id":43,"left_children":[1,3,5,7,-1,9,11,13,15,17,19,-1,21,-1,-1,-1,-1,-1,-1,-1,-1,-1,-1],"loss_changes":[6.036514E1,5.333026E1,3.0126682E1,5.6160885E1,0E0,2.697094E1,1.0470581E-1,4.76699E1,1.9098747E1,3.5841393E1,1.76292E1,0E0,1.0571208E0,0E0,0E0,0E0,0E0,0E0,0E0,0E0,0E0,0E0,0E0],"parents":[2147483647,0,0,1,1,2,2,3,3,5,5,6,6,7,7,8,8,9,9,10,10,12,12],"right_children":[2,4,6,8,-1,10,12,14,16,18,20,-1,22,-1,-1,-1,-1,-1,-1,-1,-1,-1,-1],"split_conditions":[1E0,1E0,1.0113992E1,1.6E1,7.36496E-2,1.6E1,1E0,2E0,2E0,2E0,9.255027E0,7.4302785E-2,1E0,8.760647E-3,-1.6132372E-2,-5.889911E-2,5.7920404E-2,-1.9947453E-3,6.753437E-2,2.309972E-2,-7.343651E-2,2.0262875E-2,7.099662E-2],"split_indices":[28,44,2,40,0,52,21,52,30,31,2,0,48,0,0,0,0,0,0,0,0,0,0],"split_type":[0,0,0,0,0,0,0,0,0,0,0,0,0,0,0,0,0,0,0,0,0,0,0],"sum_hessian":[1.5993613E3,1.4161357E3,1.8322556E2,1.3862401E3,2.9895617E1,1.3295453E2,5.0271027E1,1.3225127E3,6.3727432E1,1.06087E2,2.6867521E1,4.3113945E1,7.1570807E0,3.9366434E2,9.288484E2,4.7029405E0,5.902449E1,5.69358E1,4.9151203E1,1.06217985E1,1.6245724E1,4.356221E0,2.8008597E0],"tree_param":{"num_deleted":"0","num_feature":"67","num_nodes":"23","size_leaf_vector":"1"}},{"base_weights":[3.6690966E-3,7.0877165E-2,-5.256433E-1,3.3731086E-3,7.012241E-1,-7.296147E-1,3.0119112E-1,3.355794E-2,-7.830094E-2,9.9035096E-1,-2.2513981E-1,-7.190906E-2,-1.8325503E-1,-9.086094E-1,1.2145115E0,-1.3502316E-2,1.1416676E-2,7.313513E-2,1.6798513E-2,6.856321E-2,-5.5134207E-2,7.3872775E-2,-2.1094002E-2,-7.592388E-2,-7.468039E-3,-4.6809427E-2,8.7214336E-2],"categories":[],"categories_nodes":[],"categories_segments":[],"categories_sizes":[],"default_left":[0,0,0,0,0,0,0,0,0,0,0,0,0,0,0,0,0,0,0,0,0,0,0,0,0,0,0],"id":44,"left_children":[1,3,5,7,9,11,13,15,-1,17,19,-1,21,23,25,-1,-1,-1,-1,-1,-1,-1,-1,-1,-1,-1,-1],"loss_changes":[5.6793686E1,6.027414E1,3.0555344E1,5.0617184E1,3.6922493E1,3.6815674E1,4.121288E1,5.0809204E1,0E0,1.6644829E1,3.275328E1,0E0,1.6609623E1,4.3713484E0,1.1201492E1,0E0,0E0,0E0,0E0,0E0,0E0,0E0,0E0,0E0,0E0,0E0,0E0],"parents":[2147483647,0,0,1,1,2,2,3,3,4,4,5,5,6,6,7,7,9,9,10,10,12,12,13,13,14,14],"right_children":[2,4,6,8,10,12,14,16,-1,18,20,-1,22,24,26,-1,-1,-1,-1,-1,-1,-1,-1,-1,-1,-1,-1],"split_conditions":[1E0,1E0,1.6E1,1E0,1.6E1,1E0,1E0,5E0,-7.830094E-2,1E0,1E0,-7.190906E-2,1E0,1E0,1E0,-1.3502316E-2,1.1416676E-2,7.313513E-2,1.6798513E-2,6.856321E-2,-5.5134207E-2,7.3872775E-2,-2.1094002E-2,-7.592388E-2,-7.468039E-3,-4.6809427E-2,8.7214336E-2],"split_indices":[47,28,33,25,52,23,16,31,0,23,65,0,56,21,65,0,0,0,0,0,0,0,0,0,0,0,0],"split_type":[0,0,0,0,0,0,0,0,0,0,0,0,0,0,0,0,0,0,0,0,0,0,0,0,0,0,0],"sum_hessian":[1.5944441E3,1.4155717E3,1.7887244E2,1.2795497E3,1.3602203E2,1.4357225E2,3.5300182E1,1.2516482E3,2.790146E1,1.03614044E2,3.240799E1,7.662303E1,6.694922E1,1.518759E1,2.0112595E1,4.7214587E2,7.795023E2,7.7849556E1,2.5764482E1,1.068795E1,2.1720037E1,6.447792E0,6.050143E1,1.0016359E1,5.1712303E0,1.9102738E0,1.820232E1],"tree_param":{"num_deleted":"0","num_feature":"67","num_nodes":"27","size_leaf_vector":"1"}},{"base_weights":[-1.3260612E-3,-2.3870711E-1,1.5712619E-1,-1.5306218E-1,-1.010657E0,2.0144267E-1,-7.571071E-2,1.4865606E-1,-3.2956386E-1,-7.970373E-2,3.1093743E-1,1.1360924E0,1.5265192E-1,2.6987271E-2,-2.727731E-2,-5.6501864E-3,-4.745973E-2,-2.7431294E-2,6.461608E-2,-7.010239E-2,8.194135E-2,-1.8809536E-2,1.813582E-2],"categories":[],"categories_nodes":[],"categories_segments":[],"categories_sizes":[],"default_left":[0,0,0,0,0,0,0,0,0,0,0,0,0,0,0,0,0,0,0,0,0,0,0],"id":45,"left_children":[1,3,5,7,9,11,-1,13,15,-1,17,19,21,-1,-1,-1,-1,-1,-1,-1,-1,-1,-1],"loss_changes":[5.9316437E1,4.1580826E1,5.9725243E1,3.0372002E1,2.681108E1,4.168715E1,0E0,3.8508026E1,3.89803E1,0E0,8.138263E0,2.5609447E1,6.1017605E1,0E0,0E0,0E0,0E0,0E0,0E0,0E0,0E0,0E0,0E0],"parents":[2147483647,0,0,1,1,2,2,3,3,4,4,5,5,7,7,8,8,10,10,11,11,12,12],"right_children":[2,4,6,8,10,12,-1,14,16,-1,18,20,22,-1,-1,-1,-1,-1,-1,-1,-1,-1,-1],"split_conditions":[2E0,1E0,1E0,5E0,1E0,1E0,-7.571071E-2,4E0,1E0,-7.970373E-2,1.1565717E1,2E0,2E0,2.6987271E-2,-2.727731E-2,-5.6501864E-3,-4.745973E-2,-2.7431294E-2,6.461608E-2,-7.010239E-2,8.194135E-2,-1.8809536E-2,1.813582E-2],"split_indices":[30,43,25,50,24,26,0,54,66,0,3,9,33,0,0,0,0,0,0,0,0,0,0],"split_type":[0,0,0,0,0,0,0,0,0,0,0,0,0,0,0,0,0,0,0,0,0,0,0],"sum_hessian":[1.5749989E3,6.3027E2,9.447289E2,5.684058E2,6.1864204E1,9.169493E2,2.7779596E1,2.0984576E2,3.5856006E2,4.9869415E1,1.1994786E1,4.4386356E1,8.725629E2,1.4014534E2,6.970043E1,2.3823253E2,1.2032753E2,6.1903663E0,5.8044205E0,3.6511278E0,4.073523E1,2.1174265E2,6.608203E2],"tree_param":{"num_deleted":"0","num_feature":"67","num_nodes":"23","size_leaf_vector":"1"}},{"base_weights":[-1.0414242E-2,-2.3583609E-1,1.4054367E-1,-4.4713877E-2,-1.0405515E0,4.1905138E-1,-1.2041612E-1,-2.5244263E-1,4.5671865E-1,-6.775431E-2,-3.3409345E-1,8.3346355E-1,-1.0560364E-1,-9.9712473E-1,1.8627866E-1,-3.449996E-3,-6.594388E-2,-3.809804E-2,4.0834337E-2,6.2053956E-2,-4.474794E-2,6.1087567E-2,-3.289275E-2,4.5104615E-2,-9.822704E-2,-7.383417E-2,8.6520486E-2,3.940936E-2,-4.0082872E-2],"categories":[],"categories_nodes":[],"categories_segments":[],"categories_sizes":[],"default_left":[0,0,0,0,0,0,0,0,0,0,0,0,0,0,0,0,0,0,0,0,0,0,0,0,0,0,0,0,0],"id":46,"left_children":[1,3,5,7,9,11,13,15,17,-1,19,21,23,25,27,-1,-1,-1,-1,-1,-1,-1,-1,-1,-1,-1,-1,-1,-1],"loss_changes":[5.3055565E1,9.6125824E1,6.7920746E1,5.285731E1,7.139023E0,9.835285E1,1.3002368E2,5.9132774E1,3.6765224E1,0E0,9.109219E0,6.501178E1,2.642778E2,7.312206E1,1.445867E2,0E0,0E0,0E0,0E0,0E0,0E0,0E0,0E0,0E0,0E0,0E0,0E0,0E0,0E0],"parents":[2147483647,0,0,1,1,2,2,3,3,4,4,5,5,6,6,7,7,8,8,10,10,11,11,12,12,13,13,14,14],"right_children":[2,4,6,8,10,12,14,16,18,-1,20,22,24,26,28,-1,-1,-1,-1,-1,-1,-1,-1,-1,-1,-1,-1,-1,-1],"split_conditions":[5E0,6E0,1E0,4E0,1E0,4E0,2E0,1E0,1E0,-6.775431E-2,1E0,1E0,1E0,8E0,4E0,-3.449996E-3,-6.594388E-2,-3.809804E-2,4.0834337E-2,6.2053956E-2,-4.474794E-2,6.1087567E-2,-3.289275E-2,4.5104615E-2,-9.822704E-2,-7.383417E-2,8.6520486E-2,3.940936E-2,-4.0082872E-2],"split_indices":[31,50,65,35,24,33,33,16,20,0,43,20,22,52,54,0,0,0,0,0,0,0,0,0,0,0,0,0,0],"split_type":[0,0,0,0,0,0,0,0,0,0,0,0,0,0,0,0,0,0,0,0,0,0,0,0,0,0,0,0,0],"sum_hessian":[1.5571442E3,6.243118E2,9.328323E2,5.0534622E2,1.1896561E2,4.5095142E2,4.8188086E2,3.5767044E2,1.476758E2,1.0516499E2,1.3800613E1,2.5161682E2,1.9933458E2,1.2430243E2,3.5757843E2,2.915957E2,6.607474E1,2.4816172E1,1.2285963E2,2.842232E0,1.0958382E1,2.2218471E2,2.9432108E1,1.2812106E2,7.121352E1,1.1389705E2,1.0405384E1,2.3072914E2,1.268493E2],"tree_param":{"num_deleted":"0","num_feature":"67","num_nodes":"29","size_leaf_vector":"1"}},{"base_weights":[-2.7137756E-4,1.064147E0,-2.99169E-2,8.221314E-2,5.8137995E-1,-2.5093478E-1,1.15927026E-1,8.783566E-1,-5.580652E-2,-4.4293437E-2,-9.427761E-1,3.707244E-1,-1.13763854E-1,6.387038E-2,-4.0480822E-2,-1.7159214E-2,3.5409883E-2,-6.5248124E-2,9.954485E-2,-3.2516678E-3,5.6291666E-2,-5.8007956E-2,9.959785E-3],"categories":[],"categories_nodes":[],"categories_segments":[],"categories_sizes":[],"default_left":[0,0,0,0,0,0,0,0,0,0,0,0,0,0,0,0,0,0,0,0,0,0,0],"id":47,"left_children":[1,3,5,-1,7,9,11,13,-1,15,17,19,21,-1,-1,-1,-1,-1,-1,-1,-1,-1,-1],"loss_changes":[4.8303944E1,5.3323746E0,4.803492E1,0E0,8.820875E0,8.464578E1,5.2592194E1,5.1752653E0,0E0,7.027531E1,5.30757E1,1.02753845E2,1.130366E2,0E0,0E0,0E0,0E0,0E0,0E0,0E0,0E0,0E0,0E0],"parents":[2147483647,0,0,1,1,2,2,4,4,5,5,6,6,7,7,9,9,10,10,11,11,12,12],"right_children":[2,4,6,-1,8,10,12,14,-1,16,18,20,22,-1,-1,-1,-1,-1,-1,-1,-1,-1,-1],"split_conditions":[6.25E-2,1E0,5E0,8.221314E-2,1E0,3E0,1E0,1E0,-5.580652E-2,4E0,1E0,4E0,2E0,6.387038E-2,-4.0480822E-2,-1.7159214E-2,3.5409883E-2,-6.5248124E-2,9.954485E-2,-3.2516678E-3,5.6291666E-2,-5.8007956E-2,9.959785E-3],"split_indices":[54,64,31,0,47,31,65,43,0,35,65,52,33,0,0,0,0,0,0,0,0,0,0],"split_type":[0,0,0,0,0,0,0,0,0,0,0,0,0,0,0,0,0,0,0,0,0,0,0],"sum_hessian":[1.5287654E3,4.047894E1,1.4882865E3,2.3647974E1,1.6830965E1,5.913738E2,8.9691266E2,1.4417166E1,2.413799E0,4.5618347E2,1.3519029E2,4.2492593E2,4.7198676E2,1.3154954E1,1.2622111E0,3.3073932E2,1.2544415E2,1.2861963E2,6.570664E0,2.434993E2,1.8142662E2,1.1595746E2,3.560293E2],"tree_param":{"num_deleted":"0","num_feature":"67","num_nodes":"23","size_leaf_vector":"1"}},{"base_weights":[-1.4730884E-3,1.0518463E0,-3.0598719E-2,8.129114E-2,5.60777E-1,-6.116196E-3,-7.487645E-2,8.7539506E-1,-5.5607207E-2,-2.2580609E-1,1.4494002E-1,6.382E-2,-3.972878E-2,-2.4517616E-2,5.953721E-3,2.6348926E-2,-4.962224E-3],"categories":[],"categories_nodes":[],"categories_segments":[],"categories_sizes":[],"default_left":[0,0,0,0,0,0,0,0,0,0,0,0,0,0,0,0,0],"id":48,"left_children":[1,3,5,-1,7,9,-1,11,-1,13,15,-1,-1,-1,-1,-1,-1],"loss_changes":[4.654896E1,5.3151245E0,4.399547E1,0E0,8.90094E0,4.8096394E1,0E0,4.983244E0,0E0,3.5129745E1,5.755662E1,0E0,0E0,0E0,0E0,0E0,0E0],"parents":[2147483647,0,0,1,1,2,2,4,4,5,5,7,7,9,9,10,10],"right_children":[2,4,6,-1,8,10,-1,12,-1,14,16,-1,-1,-1,-1,-1,-1],"split_conditions":[6.25E-2,1E0,1E0,8.129114E-2,1E0,2E0,-7.487645E-2,1E0,-5.5607207E-2,1E0,1E0,6.382E-2,-3.972878E-2,-2.4517616E-2,5.953721E-3,2.6348926E-2,-4.962224E-3],"split_indices":[54,64,25,0,47,30,0,43,0,65,65,0,0,0,0,0,0],"split_type":[0,0,0,0,0,0,0,0,0,0,0,0,0,0,0,0,0],"sum_hessian":[1.515262E3,3.982673E1,1.4754353E3,2.3541718E1,1.6285011E1,1.4473323E3,2.8102936E1,1.3781717E1,2.5032935E0,5.894972E2,8.5783514E2,1.255283E1,1.2288876E0,3.7712192E2,2.1237527E2,3.738016E2,4.8403354E2],"tree_param":{"num_deleted":"0","num_feature":"67","num_nodes":"17","size_leaf_vector":"1"}},{"base_weights":[4.767282E-4,6.254356E-2,-4.9530306E-1,2.1602102E-3,6.4504075E-1,-6.922652E-1,2.6963502E-1,2.9534861E-2,-7.460231E-2,9.3184525E-1,-2.8117582E-1,-9.8684776E-1,3.0608416E-1,-7.797819E-1,1.1352711E0,1.8394362E-2,-5.6236372E-3,7.15675E-2,1.3124687E-2,6.521245E-2,-5.65721E-2,-7.0983596E-2,-1.6166767E-2,5.658524E-2,-1.3469309E-2,-6.9907226E-2,5.224498E-3,-4.6550274E-2,8.316731E-2],"categories":[],"categories_nodes":[],"categories_segments":[],"categories_sizes":[],"default_left":[0,0,0,0,0,0,0,0,0,0,0,0,0,0,0,0,0,0,0,0,0,0,0,0,0,0,0,0,0],"id":49,"left_children":[1,3,5,7,9,11,13,15,-1,17,19,21,23,25,27,-1,-1,-1,-1,-1,-1,-1,-1,-1,-1,-1,-1,-1,-1],"loss_changes":[4.6318184E1,4.7051464E1,2.5418983E1,4.1398705E1,3.3639126E1,3.9552746E1,3.269092E1,4.0596607E1,0E0,1.763462E1,2.8612364E1,1.4220726E1,1.0746893E1,5.5859394E0,1.0468519E1,0E0,0E0,0E0,0E0,0E0,0E0,0E0,0E0,0E0,0E0,0E0,0E0,0E0,0E0],"parents":[2147483647,0,0,1,1,2,2,3,3,4,4,5,5,6,6,7,7,9,9,10,10,11,11,12,12,13,13,14,14],"right_children":[2,4,6,8,10,12,14,16,-1,18,20,22,24,26,28,-1,-1,-1,-1,-1,-1,-1,-1,-1,-1,-1,-1,-1,-1],"split_conditions":[1E0,1E0,1.6E1,1E0,1.6E1,1E0,1E0,2E0,-7.460231E-2,1E0,1E0,1E0,1E0,1E0,1E0,1.8394362E-2,-5.6236372E-3,7.15675E-2,1.3124687E-2,6.521245E-2,-5.65721E-2,-7.0983596E-2,-1.6166767E-2,5.658524E-2,-1.3469309E-2,-6.9907226E-2,5.224498E-3,-4.6550274E-2,8.316731E-2],"split_indices":[47,28,33,25,52,37,16,52,0,23,65,24,34,21,65,0,0,0,0,0,0,0,0,0,0,0,0,0,0],"split_type":[0,0,0,0,0,0,0,0,0,0,0,0,0,0,0,0,0,0,0,0,0,0,0,0,0,0,0,0,0],"sum_hessian":[1.5032242E3,1.3367499E3,1.6647432E2,1.2121034E3,1.2464646E2,1.3246199E2,3.4012325E1,1.1869917E3,2.5111744E1,9.517064E1,2.9475824E1,1.0229064E2,3.0171343E1,1.5418974E1,1.8593351E1,3.6504584E2,8.2194586E2,6.918202E1,2.5988615E1,9.399591E0,2.0076233E1,7.9812515E1,2.2478127E1,1.3357225E1,1.6814117E1,1.0435894E1,4.983079E0,1.9145447E0,1.6678808E1],"tree_param":{"num_deleted":"0","num_feature":"67","num_nodes":"29","size_leaf_vector":"1"}},{"base_weights":[-2.147472E-3,2.0299773E-1,-1.4191E-1,1.4103866E-1,6.8297856E-2,-1.8253915E-1,7.033899E-2,-1.2982599E0,1.7581728E-1,-1.1900057E0,-1.2529045E-1,1.4066281E-2,-1.14399925E-1,7.421839E-3,6.076513E-2,3.2878794E-2,-8.5228354E-2,-2.4689166E-2,5.5853287E-3],"categories":[],"categories_nodes":[],"categories_segments":[],"categories_sizes":[],"default_left":[0,0,0,0,0,0,0,0,0,0,0,0,0,0,0,0,0,0,0],"id":50,"left_children":[1,3,5,7,-1,9,-1,11,13,15,17,-1,-1,-1,-1,-1,-1,-1,-1],"loss_changes":[4.2837467E1,3.4924194E1,4.7663715E1,2.8708328E1,0E0,4.961714E1,0E0,1.3075781E1,2.4145975E1,1.9314667E1,5.113636E1,0E0,0E0,0E0,0E0,0E0,0E0,0E0,0E0],"parents":[2147483647,0,0,1,1,2,2,3,3,5,5,7,7,8,8,9,9,10,10],"right_children":[2,4,6,8,-1,10,-1,12,14,16,18,-1,-1,-1,-1,-1,-1,-1,-1],"split_conditions":[2E0,1E0,1E0,1.25E-1,6.8297856E-2,1E0,7.033899E-2,1E0,1.6E1,2E0,1E0,1.4066281E-2,-1.14399925E-1,7.421839E-3,6.076513E-2,3.2878794E-2,-8.5228354E-2,-2.4689166E-2,5.5853287E-3],"split_indices":[49,48,44,42,0,45,0,20,40,9,65,0,0,0,0,0,0,0,0],"split_type":[0,0,0,0,0,0,0,0,0,0,0,0,0,0,0,0,0,0,0],"sum_hessian":[1.4920677E3,6.044281E2,8.8763965E2,5.679547E2,3.6473446E1,8.6185657E2,2.5783087E1,1.2542903E1,5.554118E2,4.5277275E1,8.165793E2,3.738792E0,8.804111E0,5.239318E2,3.147996E1,5.139775E0,4.01375E1,3.530316E2,4.6354773E2],"tree_param":{"num_deleted":"0","num_feature":"67","num_nodes":"19","size_leaf_vector":"1"}},{"base_weights":[-2.6837927E-3,1.0379845E0,-2.9817238E-2,-1.1184558E-1,1.1507174E0,-2.3500185E-1,1.0513126E-1,4.5714516E-2,-4.9795937E-2,7.898354E-2,8.217299E-1,-3.875528E-2,-9.209397E-1,3.494412E-1,-1.1015944E-1,1.9510457E-2,6.0295727E-2,-1.5387262E-2,3.1154687E-2,-6.4884305E-2,9.8221205E-2,4.7277562E-2,-1.1883995E-2,-5.5467963E-2,9.494428E-3],"categories":[],"categories_nodes":[],"categories_segments":[],"categories_sizes":[],"default_left":[0,0,0,0,0,0,0,0,0,0,0,0,0,0,0,0,0,0,0,0,0,0,0,0,0],"id":51,"left_children":[1,3,5,7,9,11,13,-1,-1,-1,15,17,19,21,23,-1,-1,-1,-1,-1,-1,-1,-1,-1,-1],"loss_changes":[4.1934517E1,5.0203323E0,4.009846E1,3.3183203E0,7.9631805E-1,7.730124E1,4.5995644E1,0E0,0E0,0E0,9.65106E-1,5.4524548E1,5.4211044E1,9.848096E1,1.0182449E2,0E0,0E0,0E0,0E0,0E0,0E0,0E0,0E0,0E0,0E0],"parents":[2147483647,0,0,1,1,2,2,3,3,4,4,5,5,6,6,10,10,11,11,12,12,13,13,14,14],"right_children":[2,4,6,8,10,12,14,-1,-1,-1,16,18,20,22,24,-1,-1,-1,-1,-1,-1,-1,-1,-1,-1],"split_conditions":[6.25E-2,1E0,5E0,1E0,1E0,3E0,1E0,4.5714516E-2,-4.9795937E-2,7.898354E-2,2E0,4E0,1E0,4E0,2E0,1.9510457E-2,6.0295727E-2,-1.5387262E-2,3.1154687E-2,-6.4884305E-2,9.8221205E-2,4.7277562E-2,-1.1883995E-2,-5.5467963E-2,9.494428E-3],"split_indices":[54,19,31,64,64,31,65,0,0,0,30,35,65,33,33,0,0,0,0,0,0,0,0,0,0],"split_type":[0,0,0,0,0,0,0,0,0,0,0,0,0,0,0,0,0,0,0,0,0,0,0,0,0],"sum_hessian":[1.4829994E3,3.6737186E1,1.4462622E3,3.2809277E0,3.345626E1,5.735133E2,8.727489E2,1.4525124E0,1.8284152E0,2.0254799E1,1.320146E1,4.4675372E2,1.26759575E2,4.0852982E2,4.6421906E2,4.3057694E0,8.895691E0,3.2176154E2,1.24992195E2,1.1982027E2,6.939306E0,2.2659932E2,1.819305E2,1.1447265E2,3.497464E2],"tree_param":{"num_deleted":"0","num_feature":"67","num_nodes":"25","size_leaf_vector":"1"}},{"base_weights":[-8.975368E-3,4.9044345E-2,-4.795349E-1,-6.6841007E-3,6.085087E-1,-2.729262E-1,-1.0914025E0,-4.5126732E-2,8.20801E-1,9.094953E-1,-3.2075733E-1,-6.99385E-1,1.0331582E-1,-6.972683E-2,-5.340147E-1,-4.3994766E-3,7.079922E-2,2.8127637E-2,7.571755E-2,6.856719E-2,4.720901E-3,6.308509E-2,-5.3956117E-2,-4.992191E-2,1.5317738E-2,-5.2544843E-2,2.399203E-2,-5.0594244E-2,1.42432265E-2],"categories":[],"categories_nodes":[],"categories_segments":[],"categories_sizes":[],"default_left":[0,0,0,0,0,0,0,0,0,0,0,0,0,0,0,0,0,0,0,0,0,0,0,0,0,0,0,0,0],"id":52,"left_children":[1,3,5,7,9,11,13,15,17,19,21,23,25,-1,27,-1,-1,-1,-1,-1,-1,-1,-1,-1,-1,-1,-1,-1,-1],"loss_changes":[4.015511E1,4.0831394E1,2.0110916E1,3.7950787E1,3.3473095E1,1.965075E1,9.724808E-1,3.946474E1,7.633251E0,1.732882E1,2.4572308E1,7.4714622E0,1.942529E1,0E0,1.726936E0,0E0,0E0,0E0,0E0,0E0,0E0,0E0,0E0,0E0,0E0,0E0,0E0,0E0,0E0],"parents":[2147483647,0,0,1,1,2,2,3,3,4,4,5,5,6,6,7,7,8,8,9,9,10,10,11,11,12,12,14,14],"right_children":[2,4,6,8,10,12,14,16,18,20,22,24,26,-1,28,-1,-1,-1,-1,-1,-1,-1,-1,-1,-1,-1,-1,-1,-1],"split_conditions":[1E0,1E0,4.8598123E0,1.6E1,1.6E1,2E0,1E0,1E0,4E0,1E0,1E0,1.6E1,1E0,-6.972683E-2,4E0,-4.3994766E-3,7.079922E-2,2.8127637E-2,7.571755E-2,6.856719E-2,4.720901E-3,6.308509E-2,-5.3956117E-2,-4.992191E-2,1.5317738E-2,-5.2544843E-2,2.399203E-2,-5.0594244E-2,1.42432265E-2],"split_indices":[47,28,1,40,52,53,21,44,35,43,65,35,65,0,35,0,0,0,0,0,0,0,0,0,0,0,0,0,0],"split_type":[0,0,0,0,0,0,0,0,0,0,0,0,0,0,0,0,0,0,0,0,0,0,0,0,0,0,0,0,0],